784,16,16,10
200
0.000000,-0.000000,0.000000,0.000000,0.000000,0.000000,0.000000,-0.000000,0.000000,-0.000000,-0.000000,-0.000000,0.000000,0.000000,-0.000000,0.000000,0.000000
0.000000,-0.000000,0.000000,-0.000000,0.000000,0.000000,-0.000000,-0.000000,0.000000,-0.000000,-0.000000,0.000000,-0.000000,-0.000000,0.000000,0.000000,-0.000000
0.000000,0.000000,0.000000,-0.000000,0.000000,-0.000000,-0.000000,-0.000000,0.000000,0.000000,0.000000,0.000000,0.000000,0.000000,-0.000000,-0.000000,-0.000000
0.000000,0.000000,0.000000,-0.000000,0.000000,0.000000,-0.000000,-0.000000,0.000000,0.000000,0.000000,-0.000000,-0.000000,0.000000,0.000000,-0.000000,0.000000
0.000000,0.000000,-0.000000,0.000000,-0.000000,-0.000000,0.000000,0.000000,0.000000,-0.000000,0.000000,0.000000,0.000000,0.000000,0.000000,0.000000,-0.000000
0.000000,-0.000000,-0.000000,0.000000,-0.000000,0.000000,0.000000,-0.000000,-0.000000,-0.000000,-0.000000,-0.000000,-0.000000,0.000000,-0.000000,-0.000000,-0.000000
0.000000,-0.000000,0.000000,-0.000000,-0.000000,-0.000000,0.000000,-0.000000,-0.000000,0.000000,-0.000000,-0.000000,0.000000,0.000000,0.000000,-0.000000,0.000000
0.000000,0.000000,-0.000000,0.000000,0.000000,-0.000000,-0.000000,-0.000000,0.000000,0.000000,-0.000000,-0.000000,0.000000,0.000000,-0.000000,-0.000000,-0.000000
0.000000,-0.000000,-0.000000,-0.000000,0.000000,0.000000,-0.000000,0.000000,0.000000,0.000000,-0.000000,0.000000,0.000000,-0.000000,0.000000,-0.000000,0.000000
0.000000,-0.000000,-0.000000,-0.000000,0.000000,-0.000000,-0.000000,0.000000,0.000000,-0.000000,-0.000000,0.000000,-0.000000,0.000000,0.000000,-0.000000,0.000000
0.000000,-0.000000,0.000000,0.000000,-0.000000,0.000000,-0.000000,0.000000,-0.000000,-0.000000,0.000000,0.000000,-0.000000,-0.000000,0.000000,-0.000000,0.000000
0.000000,0.000000,-0.000000,0.000000,0.000000,0.000000,-0.000000,0.000000,-0.000000,-0.000000,-0.000000,-0.000000,0.000000,-0.000000,-0.000000,0.000000,0.000000
0.000000,0.000000,-0.000000,0.000000,0.000000,-0.000000,-0.000000,0.000000,0.000000,-0.000000,0.000000,0.000000,0.000000,-0.000000,0.000000,-0.000000,-0.000000
0.000000,-0.000000,-0.000000,0.000000,0.000000,-0.000000,0.000000,-0.000000,-0.000000,0.000000,-0.000000,-0.000000,0.000000,-0.000000,0.000000,0.000000,0.000000
0.000000,0.000000,0.000000,0.000000,0.000000,-0.000000,-0.000000,0.000000,0.000000,0.000000,0.000000,-0.000000,-0.000000,-0.000000,-0.000000,0.000000,0.000000
0.000000,0.000000,-0.000000,0.000000,0.000000,-0.000000,-0.000000,0.000000,-0.000000,-0.000000,-0.000000,-0.000000,-0.000000,-0.000000,0.000000,0.000000,0.000000
0.000000,0.000000,-0.000000,-0.000000,-0.000000,0.000000,0.000000,0.000000,0.000000,0.000000,0.000000,-0.000000,-0.000000,-0.000000,-0.000000,-0.000000,-0.000000
0.000000,-0.000000,-0.000000,0.000000,0.000000,-0.000000,0.000000,-0.000000,-0.000000,0.000000,0.000000,0.000000,0.000000,0.000000,0.000000,0.000000,-0.000000
0.000000,0.000000,-0.000000,-0.000000,0.000000,0.000000,0.000000,-0.000000,0.000000,0.000000,0.000000,-0.000000,-0.000000,-0.000000,0.000000,0.000000,-0.000000
0.000000,0.000000,-0.000000,-0.000000,-0.000000,0.000000,-0.000000,0.000000,0.000000,0.000000,-0.000000,0.000000,-0.000000,0.000000,-0.000000,0.000000,-0.000000
0.000000,0.000000,-0.000000,-0.000000,-0.000000,0.000000,-0.000000,0.000000,-0.000000,0.000000,0.000000,-0.000000,-0.000000,-0.000000,-0.000000,0.000000,-0.000000
0.000000,-0.000000,0.000000,-0.000000,-0.000000,0.000000,-0.000000,-0.000000,0.000000,0.000000,0.000000,-0.000000,0.000000,0.000000,0.000000,-0.000000,-0.000000
0.000000,-0.000000,-0.000000,-0.000000,-0.000000,-0.000000,0.000000,-0.000000,-0.000000,0.000000,0.000000,-0.000000,-0.000000,0.000000,0.000000,0.000000,0.000000
0.000000,0.000000,0.000000,0.000000,-0.000000,0.000000,-0.000000,0.000000,0.000000,-0.000000,-0.000000,-0.000000,-0.000000,-0.000000,0.000000,-0.000000,0.000000
0.000000,0.000000,0.000000,-0.000000,0.000000,-0.000000,0.000000,0.000000,0.000000,0.000000,-0.000000,0.000000,-0.000000,0.000000,0.000000,0.000000,0.000000
0.000000,-0.000000,-0.000000,-0.000000,0.000000,0.000000,0.000000,0.000000,-0.000000,0.000000,0.000000,0.000000,0.000000,-0.000000,0.000000,0.000000,0.000000
0.000000,0.000000,-0.000000,-0.000000,-0.000000,-0.000000,-0.000000,-0.000000,0.000000,-0.000000,0.000000,0.000000,0.000000,-0.000000,-0.000000,-0.000000,0.000000
0.000000,-0.000000,0.000000,-0.000000,0.000000,-0.000000,0.000000,0.000000,0.000000,0.000000,0.000000,-0.000000,0.000000,-0.000000,-0.000000,0.000000,-0.000000
0.000000,0.000000,-0.000000,-0.000000,-0.000000,-0.000000,0.000000,-0.000000,0.000000,-0.000000,-0.000000,-0.000000,-0.000000,-0.000000,0.000000,0.000000,0.000000
0.000000,0.000000,0.000000,-0.000000,0.000000,-0.000000,-0.000000,0.000000,0.000000,-0.000000,0.000000,0.000000,0.000000,-0.000000,-0.000000,-0.000000,0.000000
0.000000,0.000000,-0.000000,0.000000,0.000000,0.000000,-0.000000,-0.000000,-0.000000,-0.000000,0.000000,-0.000000,0.000000,0.000000,-0.000000,0.000000,-0.000000
0.000000,0.000000,-0.000000,-0.000000,-0.000000,-0.000000,0.000000,-0.000000,-0.000000,-0.000000,0.000000,0.000000,0.000000,-0.000000,-0.000000,0.000000,-0.000000
0.000000,0.000000,0.000000,-0.000000,0.000000,0.000000,0.000000,-0.000000,-0.000000,0.000000,-0.000000,-0.000000,-0.000000,-0.000000,-0.000000,-0.000000,-0.000000
0.000000,0.000000,0.000000,0.000000,0.000000,-0.000000,0.000000,0.000000,-0.000000,-0.000000,-0.000000,-0.000000,0.000000,-0.000000,-0.000000,0.000000,0.000000
0.000000,0.000000,0.000000,0.000000,0.000000,-0.000000,-0.000000,-0.000000,0.000000,-0.000000,0.000000,0.000000,0.000000,-0.000000,-0.000000,-0.000000,0.000000
0.000000,0.000000,-0.000000,-0.000000,0.000000,-0.000000,0.000000,-0.000000,-0.000000,-0.000000,0.000000,-0.000000,-0.000000,0.000000,-0.000000,0.000000,0.000000
0.000000,-0.000000,0.000000,-0.000000,-0.000000,0.000000,0.000000,0.000000,-0.000000,0.000000,0.000000,0.000000,0.000000,0.000000,-0.000000,-0.000000,-0.000000
0.000000,-0.000000,-0.000000,0.000000,-0.000000,0.000000,0.000000,0.000000,0.000000,0.000000,0.000000,0.000000,-0.000000,0.000000,-0.000000,0.000000,-0.000000
0.000000,0.000000,0.000000,0.000000,0.000000,-0.000000,0.000000,0.000000,0.000000,0.000000,-0.000000,-0.000000,0.000000,-0.000000,0.000000,0.000000,-0.000000
0.000000,0.000000,0.000000,-0.000000,0.000000,0.000000,-0.000000,0.000000,-0.000000,-0.000000,0.000000,0.000000,0.000000,-0.000000,0.000000,0.000000,-0.000000
0.000000,-0.000000,0.000000,-0.000000,0.000000,0.000000,-0.000000,-0.000000,0.000000,-0.000000,-0.000000,-0.000000,0.000000,-0.000000,-0.000000,0.000000,-0.000000
0.000000,-0.000000,-0.000000,0.000000,0.000000,-0.000000,-0.000000,-0.000000,-0.000000,0.000000,0.000000,0.000000,-0.000000,0.000000,-0.000000,-0.000000,0.000000
0.000000,-0.000000,0.000000,-0.000000,0.000000,-0.000000,0.000000,0.000000,0.000000,0.000000,-0.000000,-0.000000,-0.000000,-0.000000,0.000000,-0.000000,-0.000000
0.000000,0.000000,0.000655,-0.000000,0.000000,-0.000000,0.000000,0.000085,-0.000010,0.000000,0.000222,-0.000000,0.000000,0.000000,0.000000,-0.000000,-0.000121
0.000000,-0.000000,0.000865,-0.000000,0.000000,-0.000000,-0.000000,0.000116,-0.000026,-0.000000,0.000000,0.000000,-0.000000,0.000000,-0.000000,-0.000000,-0.000000
0.000000,-0.000000,0.000000,0.000000,0.000000,0.000000,0.000000,-0.000000,-0.000000,-0.000000,-0.000006,-0.000000,0.000000,-0.000000,0.000000,-0.000000,0.000000
0.000000,-0.000000,0.000000,0.000000,0.000041,0.000000,-0.000000,0.000000,-0.000006,0.000000,-0.000212,0.000000,-0.000066,0.000000,0.000000,0.000000,0.000092
0.000000,-0.000000,0.000000,0.000000,-0.000000,0.000000,-0.000000,0.000000,-0.000000,-0.000000,-0.000000,0.000000,-0.000000,0.000000,-0.000000,0.000000,-0.000000
0.000000,0.000000,0.000000,0.000000,-0.000000,-0.000000,0.000000,-0.000000,-0.000000,0.000000,0.000000,-0.000000,0.000000,-0.000000,-0.000000,0.000000,0.000000
0.000000,-0.000000,-0.000000,-0.000000,-0.000000,0.000000,0.000000,-0.000000,-0.000000,-0.000000,0.000000,-0.000000,-0.000000,-0.000000,0.000000,-0.000000,0.000000
0.000000,-0.000000,0.000200,-0.000000,-0.000000,0.000000,-0.000000,-0.000000,0.000000,-0.000000,-0.000000,-0.000000,0.000000,0.000000,0.000000,0.000000,0.000000
0.000000,-0.000000,0.000000,-0.000000,0.000000,0.000000,0.000000,-0.000000,-0.000000,0.000000,-0.000000,-0.000000,-0.000000,-0.000000,-0.000000,0.000000,0.000000
0.000000,0.000000,0.000007,-0.000000,-0.000000,-0.000000,-0.000000,0.000000,-0.000000,-0.000000,-0.000007,0.000000,-0.000000,0.000000,0.000000,-0.000000,-0.000000
0.000000,-0.000000,-0.000000,-0.000000,0.000000,-0.000000,0.000000,0.000000,-0.000000,-0.000000,-0.000000,-0.000000,0.000000,0.000000,0.000000,0.000000,0.000000
0.000000,-0.000000,-0.000000,-0.000000,-0.000000,-0.000000,0.000000,0.000000,0.000000,-0.000000,0.000000,0.000000,0.000000,-0.000000,-0.000000,-0.000000,0.000000
0.000000,0.000000,0.000000,0.000000,-0.000000,-0.000000,-0.000000,-0.000000,-0.000000,0.000000,0.000000,-0.000000,-0.000000,0.000000,-0.000000,-0.000000,-0.000000
0.000000,-0.000000,-0.000000,-0.000000,0.000000,0.000000,-0.000000,0.000000,0.000000,-0.000000,-0.000000,-0.000000,-0.000000,-0.000000,0.000000,-0.000000,0.000000
0.000000,-0.000000,-0.000000,0.000000,0.000000,0.000000,-0.000000,-0.000000,0.000000,0.000000,0.000000,-0.000000,0.000000,-0.000000,0.000000,-0.000000,-0.000000
0.000000,-0.000000,-0.000000,-0.000000,0.000000,0.000000,0.000000,0.000000,0.000000,0.000000,0.000000,0.000000,-0.000000,0.000000,0.000000,-0.000000,0.000000
0.000000,-0.000000,0.000000,0.000000,0.000000,-0.000000,-0.000000,0.000000,-0.000000,-0.000000,0.000000,-0.000000,0.000000,0.000000,-0.000000,-0.000000,-0.000000
0.000000,-0.000000,0.000000,0.000000,-0.000000,-0.000000,-0.000000,0.000000,-0.000000,0.000000,0.000000,-0.000000,-0.000000,-0.000000,-0.000000,-0.000000,0.000000
0.000000,-0.000000,-0.000000,0.000000,-0.000000,0.000000,-0.000000,0.000000,0.000000,0.000000,0.000000,-0.000000,0.000000,-0.000000,-0.000000,0.000000,-0.000000
0.000000,-0.000000,0.000000,0.000000,0.000000,0.000000,0.000000,0.000000,-0.000000,0.000000,0.000000,0.000000,-0.000000,0.000000,0.000000,0.000000,0.000000
0.000000,-0.000000,-0.000000,0.000000,-0.000000,0.000000,-0.000000,0.000000,-0.000000,0.000000,-0.000000,-0.000000,-0.000000,0.000000,-0.000000,-0.000000,0.000000
0.000000,-0.000000,0.024780,-0.000000,-0.000250,-0.000000,0.000000,0.000034,0.000000,-0.000000,-0.000565,0.000000,0.000000,0.000000,-0.000000,-0.000020,-0.000000
0.000000,-0.000000,-0.000135,0.000000,0.000000,-0.000000,0.000000,0.000063,0.000073,-0.000000,-0.000165,0.000061,0.000308,0.000000,-0.000078,-0.000057,0.000322
0.000000,0.000000,-0.032723,0.000000,-0.000052,-0.000000,-0.000123,-0.000051,0.000296,-0.000020,0.000000,0.000256,0.000835,0.000000,-0.000316,-0.000000,0.001085
0.000000,0.000000,-0.001192,-0.000000,-0.000096,0.000000,-0.001812,0.000034,-0.000573,0.000000,-0.012585,0.000125,0.000466,-0.000000,-0.000087,-0.000009,0.000268
0.000000,-0.000000,0.020061,0.000000,-0.000024,-0.000000,-0.000240,0.000000,-0.009766,-0.000000,-0.010344,-0.000000,0.000000,-0.000000,0.000129,-0.000000,0.000531
0.000000,-0.000000,0.047562,0.000000,-0.000690,-0.000000,-0.000282,0.000335,-0.016844,-0.000118,-0.043111,0.000000,0.000008,0.000621,0.000194,0.000000,0.013661
0.000000,-0.000000,0.081352,-0.000000,-0.000295,-0.000000,-0.000166,0.142284,0.000687,-0.000086,-0.011227,-0.001140,-0.001249,-0.005124,-0.510393,0.000785,0.000427
0.000000,-0.000000,0.032637,0.000000,-0.000671,-0.000000,0.000000,0.070261,-0.012126,-0.000000,0.000253,-0.000000,-0.000313,0.000299,-0.070730,0.000065,0.000446
0.000000,0.000000,0.170745,0.000000,-0.001495,0.000000,-0.000551,0.177996,-0.026219,0.000013,-0.000009,0.000000,-0.000015,0.001288,-0.051824,-0.000521,0.003824
0.000000,-0.000000,0.070003,-0.000000,-0.000564,-0.000000,-0.000348,0.005791,-0.007834,0.000000,-0.000770,-0.000000,-0.000052,0.000327,-0.009966,0.000030,0.008345
0.000000,0.000000,0.053871,0.000000,0.000435,0.000000,0.000541,0.000000,-0.031916,0.000000,-0.017014,-0.000000,-0.000214,-0.019396,-0.019845,0.000262,0.003034
0.000000,-0.000000,0.048529,0.000000,0.001098,-0.000000,0.001653,0.004324,-0.007945,-0.000221,-0.009625,-0.000000,-0.000014,-0.006923,-0.003377,0.000379,0.000008
0.000000,0.000000,0.011789,-0.000000,-0.000000,-0.000000,0.000823,0.003012,-0.008959,0.000004,-0.028862,0.000000,0.000000,0.000000,0.000042,-0.000000,0.001027
0.000000,0.000000,0.000416,-0.000000,-0.000000,0.000000,-0.000025,0.000000,-0.012816,-0.000000,-0.000000,-0.000738,0.000000,-0.000000,0.000000,0.000000,0.000153
0.000000,-0.000000,0.001352,-0.000000,0.000000,0.000000,-0.000041,0.000000,-0.007057,0.000000,0.000000,-0.000220,-0.000000,-0.000000,-0.000000,0.000000,0.000597
0.000000,-0.000000,0.004434,0.000000,-0.000000,0.000000,0.000665,0.000000,0.000000,-0.000000,0.000000,0.000000,-0.000000,-0.001426,0.000000,0.000000,0.000024
0.000000,-0.000000,-0.000000,-0.000000,0.000000,0.000000,-0.000000,-0.000000,-0.000000,-0.000000,-0.000000,0.000000,-0.000000,-0.000000,0.000000,0.000000,0.000000
0.000000,-0.000000,0.000000,-0.000000,-0.000000,-0.000000,-0.000000,-0.000000,-0.000000,0.000000,0.000000,-0.000000,0.000000,-0.000000,0.000000,0.000000,-0.000000
0.000000,-0.000000,-0.000000,-0.000000,0.000000,0.000000,-0.000000,-0.000000,0.000000,0.000000,0.000000,-0.000000,0.000000,-0.000000,0.000000,0.000000,-0.000000
0.000000,-0.000000,-0.000000,0.000000,0.000000,0.000000,0.000000,-0.000000,0.000000,-0.000000,-0.000000,0.000000,-0.000000,0.000000,0.000000,0.000000,0.000000
0.000000,0.000000,0.000000,-0.000000,-0.000000,0.000000,0.000000,-0.000000,0.000000,0.000000,0.000000,0.000000,-0.000000,-0.000000,0.000000,-0.000000,-0.000000
0.000000,-0.000000,-0.000000,-0.000000,-0.000000,0.000000,-0.000000,0.000000,0.000000,0.000000,0.000000,0.000000,-0.000000,-0.000000,-0.000000,-0.000000,0.000000
0.000000,0.000000,0.000000,0.000000,0.000000,0.000000,0.000000,-0.000000,-0.000000,-0.000000,0.000000,-0.000000,0.000000,0.000000,0.000000,0.000000,-0.000000
0.000000,0.000000,-0.000000,-0.000000,0.000000,0.000000,-0.000000,0.000000,-0.000000,0.000000,-0.000000,-0.000000,0.000000,-0.000000,0.000000,-0.000000,0.000000
0.000000,-0.000000,-0.000000,0.000000,-0.000000,0.000000,0.000000,0.000000,-0.000000,-0.000000,-0.000000,-0.000000,-0.000000,-0.000000,0.000000,0.000000,-0.000000
0.000000,0.000000,-0.000000,-0.000000,0.000000,-0.000000,-0.000000,-0.000000,0.000000,0.000000,-0.000000,-0.000000,-0.000000,0.000000,-0.000000,-0.000000,0.000000
0.000000,-0.000000,0.000000,0.000000,0.000000,-0.000000,0.000000,-0.000000,0.000000,0.000000,-0.000000,0.000000,0.000000,-0.000000,0.000000,0.000000,0.000000
0.000000,0.000000,0.000089,-0.000000,-0.000000,-0.000000,-0.000038,0.000010,0.000000,-0.000000,-0.000843,-0.000000,0.000000,-0.000000,-0.000000,-0.000001,0.000202
0.000000,0.000000,0.028971,-0.000000,0.000285,0.000000,-0.000000,-0.000020,0.001676,0.000000,-0.056670,-0.000000,-0.000075,0.000000,-0.000119,-0.000124,0.021817
0.000000,-0.000000,0.000752,0.000000,-0.001058,0.000000,0.000305,-0.000207,0.032315,-0.000030,-0.158514,0.000153,0.000305,0.000000,-0.000293,-0.000000,0.123467
0.000000,0.000000,-0.002744,0.000000,-0.005944,0.000000,-0.000192,0.009800,0.000687,-0.003635,-0.149439,0.000256,0.000672,-0.000006,-0.000268,0.002450,0.242918
0.000000,0.000000,-0.003304,0.000000,-0.009511,0.000000,-0.005376,-0.000468,-0.000172,-0.037409,-0.121751,0.000263,0.000729,-0.000039,0.011883,0.012988,0.003287
0.000000,0.000000,-0.167384,0.000000,-0.002650,0.000000,-0.006223,-0.000241,-0.001636,-0.004846,-0.261674,0.000056,0.225206,0.013654,0.055690,0.001501,0.054514
0.000000,0.000000,-0.015736,0.000000,-0.001107,0.000000,0.000907,0.004656,0.070344,0.000106,-0.286162,0.000140,0.131551,0.051317,0.000859,0.002187,0.018924
0.000000,0.000000,-0.001802,0.000000,0.010197,0.000000,-0.165867,0.035716,0.000712,0.001200,-0.614971,-0.000002,-0.000140,0.023393,-0.276376,0.124578,0.060011
0.000000,-0.000000,-0.020021,0.000000,0.166961,-0.000000,-0.008415,-0.001620,0.152938,-0.021966,-0.431348,-0.000463,0.080306,0.005375,-0.335590,0.049291,-0.001850
0.000000,0.000000,-0.012921,0.000000,0.093108,0.000000,-0.072749,0.001492,0.076703,-0.188145,-0.079804,-0.000029,0.213979,0.011309,0.000319,-0.000103,-0.001831
0.000000,-0.000000,0.002952,0.000000,0.001670,0.000000,-0.079806,0.021832,-0.002272,0.019721,-0.256259,-0.000049,0.000121,-0.001476,-0.000638,-0.001127,-0.056995
0.000000,-0.000000,0.008046,0.000000,-0.000668,-0.000000,0.005603,-0.000410,-0.007720,0.004156,-0.000991,0.000649,-0.003792,-0.002754,-0.344925,0.148707,-0.050185
0.000000,0.000000,0.154969,-0.000000,0.001571,0.000000,0.069152,0.111217,0.002948,0.015111,0.001452,-0.000194,-0.002135,-0.002392,-0.200393,0.165881,0.001299
0.000000,-0.000000,0.104868,-0.000000,-0.003459,-0.000000,0.001808,0.013195,0.077069,0.000053,-0.030979,-0.001034,-0.000732,0.001011,-0.000448,0.026399,-0.001104
0.000000,-0.000000,0.380808,0.000000,0.000656,-0.000000,-0.000700,0.000724,0.014137,0.000000,0.007144,-0.010498,-0.000565,-0.003449,-0.000337,-0.000365,-0.020032
0.000000,-0.000000,0.274177,0.000000,0.014887,0.000000,-0.000514,0.004348,-0.009035,-0.000158,0.045439,-0.000343,-0.000112,-0.002453,-0.010491,0.000385,-0.002580
0.000000,0.000000,0.142418,0.000000,0.000600,0.000000,0.000453,0.007014,-0.037547,-0.000276,0.011729,-0.001469,-0.000200,-0.020311,0.000568,-0.000316,-0.002285
0.000000,-0.000000,0.038323,0.000000,0.000000,0.000000,-0.000021,0.000289,0.000141,-0.000658,0.000494,-0.025783,-0.000028,-0.008054,0.001091,0.000118,0.002396
0.000000,-0.000000,0.006267,-0.000000,0.000000,-0.000000,-0.000000,0.000000,0.000179,-0.001000,-0.001758,-0.021768,-0.000107,-0.000815,0.001175,0.006896,0.017133
0.000000,0.000000,0.000000,0.000000,-0.000000,0.000000,-0.000000,-0.000000,-0.000000,0.000000,0.000024,0.000610,0.000000,-0.000000,0.000000,0.000000,0.000000
0.000000,-0.000000,0.000000,-0.000000,0.000000,-0.000000,0.000000,0.000000,-0.000000,-0.000000,0.000000,-0.000000,0.000000,0.000000,0.000000,-0.000000,-0.000000
0.000000,0.000000,0.000000,0.000000,-0.000000,0.000000,0.000000,0.000000,-0.000000,-0.000000,-0.000000,0.000000,-0.000000,0.000000,0.000000,-0.000000,0.000000
0.000000,-0.000000,-0.000000,0.000000,-0.000000,-0.000000,0.000000,0.000000,-0.000000,-0.000000,0.000000,-0.000000,0.000000,-0.000000,-0.000000,0.000000,0.000000
0.000000,0.000000,0.000000,0.000000,0.000000,-0.000000,0.000000,0.000000,0.000000,-0.000000,0.000000,0.000000,-0.000000,-0.000000,-0.000000,0.000000,0.000000
0.000000,-0.000000,-0.000000,0.000000,-0.000000,-0.000000,-0.000000,0.000000,0.000000,0.000000,0.000000,0.000000,0.000000,-0.000000,0.000000,-0.000000,0.000000
0.000000,-0.000000,-0.000000,-0.000000,-0.000000,0.000000,0.000000,0.000000,0.000000,-0.000000,0.000000,-0.000000,-0.000000,0.000000,-0.000000,-0.000000,0.000000
0.000000,-0.000000,0.000000,0.000000,-0.000000,-0.000000,0.000000,-0.000000,-0.000000,0.000000,-0.000147,-0.000000,0.000000,0.000000,-0.000000,0.000000,0.000105
0.000000,-0.000000,-0.000000,0.000000,0.000000,-0.000000,0.000000,0.000000,0.000246,-0.000031,-0.001242,-0.000000,0.000000,-0.000052,0.000000,-0.000000,0.000393
0.000000,0.000000,-0.005915,0.000000,0.000188,0.000000,0.000000,-0.000056,0.000589,-0.000000,-0.015152,-0.000435,-0.000000,0.000027,-0.000011,0.000000,0.036893
0.000000,0.000000,-0.024108,-0.000000,-0.000023,-0.000000,0.000306,-0.002563,0.077861,-0.000519,-0.007298,-0.000849,0.027492,0.000172,-0.000024,0.000585,-0.000510
0.000000,0.000000,-0.062512,0.000000,-0.013628,-0.000000,-0.000000,-0.002265,0.044938,0.000164,-0.172739,-0.001709,0.082475,0.000597,-0.012253,0.000909,-0.001152
0.000000,-0.000000,-0.148722,-0.000000,-0.003331,0.000000,-0.053186,-0.000626,0.039920,-0.000088,-0.459464,-0.008519,0.138086,0.000841,-0.012192,0.005327,0.116151
0.000000,0.000000,-0.000234,0.000000,-0.002523,0.000000,-0.460476,0.046075,0.320215,0.000823,-0.164313,-0.017435,0.243109,-0.005587,-0.001085,0.003373,-0.000177
0.000000,-0.000000,0.004617,0.000000,-0.001599,-0.000000,-0.061411,-0.000102,0.139102,0.059350,-0.005419,0.002079,0.188030,0.001521,-0.002611,0.298764,0.002373
0.000000,-0.000000,-0.086158,-0.000000,0.020597,-0.000000,-0.108664,0.032345,0.110131,-0.002315,0.000320,0.001954,0.050903,0.056671,0.059652,0.017485,0.006820
0.000000,-0.000000,-0.007221,0.000000,0.005470,0.000000,0.003658,0.025710,-0.001484,0.129092,-0.010287,-0.062227,0.065238,0.005077,-0.173338,0.001042,-0.029991
0.000000,0.000000,-0.081733,0.000000,0.025208,-0.000000,0.004724,-0.003259,-0.000524,-0.059757,-0.170253,-0.091065,0.021622,0.005890,-0.055891,0.090070,-0.018228
0.000000,-0.000000,0.042068,-0.000000,0.049860,0.000000,0.001315,-0.002011,0.161765,0.002430,-0.001455,-0.001403,0.024856,0.001712,-0.057730,0.103227,-0.039513
0.000000,-0.000000,-0.008638,0.000000,0.044644,0.000000,-0.058575,0.086846,0.061879,-0.034661,-0.124839,-0.000486,0.068815,-0.000540,-0.012441,0.179358,-0.064273
0.000000,-0.000000,-0.052508,0.000000,0.131468,0.000000,-0.013886,-0.001356,0.004177,-0.080299,0.007193,-0.017400,0.034171,-0.002534,-0.291363,0.181844,-0.003656
0.000000,0.000000,-0.015585,0.000000,0.003565,-0.000000,-0.024194,0.038039,0.134762,0.015752,0.030867,-0.048187,-0.003636,0.014909,-0.002882,0.005224,0.210596
0.000000,-0.000000,0.014155,-0.000000,-0.000553,-0.000000,0.044825,0.100508,0.099004,0.019922,-0.127645,-0.138796,-0.024312,0.007525,0.036397,0.037444,0.014301
0.000000,-0.000000,0.000045,0.000000,0.100217,-0.000000,-0.000461,0.044667,-0.000113,-0.018428,0.001569,-0.126046,-0.022078,0.000763,-0.003748,0.008091,0.005217
0.000000,0.000000,0.031545,0.000000,0.185090,0.000000,0.005504,0.000775,0.000307,-0.000197,0.005770,-0.057218,-0.186260,0.000729,-0.008676,0.055658,0.000262
0.000000,0.000000,0.007806,0.000000,0.052884,-0.000000,0.001887,0.010369,-0.006092,-0.001248,0.133961,-0.355833,-0.061890,0.001007,-0.001704,0.002453,-0.008443
0.000000,0.000000,0.345006,-0.000000,0.043176,-0.000000,-0.000956,0.005849,-0.002553,-0.001355,0.175712,-0.050299,-0.016212,-0.029547,0.011604,0.000203,-0.020692
0.000000,-0.000000,0.057693,-0.000000,0.127010,0.000000,-0.001358,0.000715,0.023968,-0.000576,0.045856,-0.016731,-0.004054,-0.048788,0.015785,0.000418,0.000591
0.000000,0.000000,0.000946,0.000000,0.000952,-0.000000,-0.000182,-0.000000,0.000000,-0.000000,0.000843,-0.000161,0.000000,-0.001255,0.009600,0.000275,0.000538
0.000000,0.000000,-0.000000,0.000000,-0.000000,-0.000000,-0.000000,-0.000000,-0.000000,0.000000,-0.000000,0.000000,-0.000000,0.000000,-0.000000,0.000000,0.000000
0.000000,0.000000,-0.000000,0.000000,0.000000,0.000000,-0.000000,-0.000000,-0.000000,0.000000,0.000000,-0.000000,0.000000,0.000000,0.000000,0.000000,0.000000
0.000000,-0.000000,0.000000,-0.000000,0.000000,-0.000000,0.000000,0.000000,0.000000,-0.000000,0.000000,-0.000000,-0.000000,0.000000,-0.000000,-0.000000,0.000000
0.000000,-0.000000,-0.000000,-0.000000,-0.000000,-0.000000,-0.000000,0.000000,0.000000,-0.000000,0.000000,-0.000000,-0.000000,-0.000000,0.000000,0.000000,-0.000000
0.000000,0.000000,0.000000,0.000000,-0.000000,-0.000000,-0.000000,-0.000000,0.000000,-0.000000,0.000000,0.000000,-0.000000,-0.000000,0.000000,0.000000,0.000000
0.000000,-0.000000,-0.000000,-0.000000,-0.000000,0.000000,0.000000,0.000000,0.000133,0.000000,0.000000,-0.000000,-0.000000,-0.000000,0.000000,0.000000,0.000000
0.000000,-0.000000,-0.002206,0.000000,-0.000105,0.000000,-0.000165,-0.000022,0.000070,0.007205,-0.000927,0.000000,0.000048,0.000000,0.000000,-0.002981,0.004581
0.000000,-0.000000,0.000000,0.000000,-0.012483,-0.000000,0.016070,0.017674,0.000761,0.000981,-0.001035,-0.000000,-0.033964,0.000096,-0.009161,-0.154088,0.000017
0.000000,0.000000,-0.120532,-0.000000,-0.006616,0.000000,0.001744,0.009024,0.001644,0.294247,-0.000476,-0.000864,-0.000544,0.002493,-0.000290,-0.139207,-0.000838
0.000000,0.000000,-0.306886,0.000000,-0.000401,0.000000,0.001001,-0.000089,0.220001,0.113764,-0.005484,-0.003863,0.000637,0.001910,0.000912,-0.022272,0.040051
0.000000,-0.000000,-0.007891,-0.000000,-0.006459,0.000000,-0.002610,-0.002981,-0.027621,-0.012593,-0.000140,-0.115499,-0.003818,0.013925,-0.005962,-0.020145,0.193910
0.000000,0.000000,0.000139,-0.000000,-0.002966,-0.000000,-0.000774,-0.025522,-0.004506,0.032223,-0.000720,-0.003446,-0.085763,0.114564,-0.009696,-0.064778,0.000341
0.000000,-0.000000,-0.000986,0.000000,0.002317,0.000000,-0.003473,-0.030538,-0.025921,-0.000995,-0.028061,-0.062026,0.008126,0.001636,-0.022118,0.008512,0.003403
0.000000,0.000000,-0.005852,-0.000000,-0.000426,0.000000,-0.102908,0.003263,0.035697,-0.001546,0.016358,-0.007531,0.019944,0.046103,-0.000953,0.080145,0.008209
0.000000,0.000000,-0.069483,0.000000,0.128669,0.000000,-0.001925,0.109013,0.016673,0.001411,0.199949,-0.110876,-0.002327,0.018831,0.185629,0.001787,0.001113
0.000000,-0.000000,-0.016046,-0.000000,-0.098322,-0.000000,-0.039956,0.043430,0.048341,0.048152,0.045084,0.003589,-0.002690,0.033887,-0.638260,0.078004,0.010064
0.000000,-0.000000,-0.041290,0.000000,0.016261,-0.000000,0.004295,0.041181,0.037490,-0.054664,-0.056430,0.003555,0.001750,0.000968,0.113581,0.116825,0.035296
0.000000,0.000000,-0.013589,0.000000,-0.052083,-0.000000,0.040048,0.040073,-0.027104,0.028256,0.022583,-0.171113,-0.001209,0.007777,-0.037317,-0.002468,0.005264
0.000000,0.000000,0.121238,0.000000,0.122038,0.000000,-0.031524,-0.006394,0.038165,0.097456,0.002684,-0.112277,0.115296,0.066480,0.036198,0.044696,0.127824
0.000000,-0.000000,0.092695,0.000000,0.072034,0.000000,0.000404,0.000739,0.052534,-0.049817,0.006889,-0.170456,0.009901,-0.029757,-0.002151,0.059012,0.048766
0.000000,-0.000000,0.132682,-0.000000,-0.025189,0.000000,-0.003755,-0.060549,-0.003710,0.010733,-0.015798,-0.340861,-0.006504,-0.007462,0.015384,0.175091,0.021199
0.000000,0.000000,0.013511,-0.000000,0.005066,-0.000000,-0.080185,0.009934,0.075981,0.010982,-0.010640,-0.307887,0.000858,-0.089020,0.020467,0.075648,0.000577
0.000000,0.000000,0.185743,0.000000,0.020056,-0.000000,-0.119253,0.085678,0.067597,0.001901,-0.000425,-0.054841,-0.005116,0.002606,-0.015650,0.239242,0.000676
0.000000,0.000000,0.040831,0.000000,-0.015990,0.000000,-0.044492,0.032180,0.007360,-0.004094,-0.008702,0.006249,-0.002595,0.042475,-0.041888,0.083330,-0.037447
0.000000,0.000000,0.074556,0.000000,-0.007157,-0.000000,-0.015988,0.001041,0.000166,-0.023286,0.001505,0.004321,-0.030873,0.037519,-0.159646,0.080188,-0.167876
0.000000,-0.000000,0.544013,-0.000000,-0.025927,-0.000000,-0.001282,0.001323,0.000461,0.000054,-0.001415,-0.286495,-0.022719,0.003516,0.012866,0.000271,-0.130619
0.000000,-0.000000,0.000950,-0.000000,0.000456,-0.000000,-0.001142,0.001584,0.010847,0.052601,0.000106,-0.111569,-0.001969,-0.025121,0.029506,0.024914,-0.001368
0.000000,0.000000,-0.000733,-0.000000,0.000724,0.000000,0.000007,0.000604,0.000000,0.001541,0.000302,-0.055636,0.000281,-0.024254,0.014846,0.010122,-0.000578
0.000000,-0.000000,-0.000091,0.000000,0.000000,-0.000000,-0.000000,0.000000,0.000000,0.000359,-0.003477,0.000126,-0.000000,-0.007250,-0.000000,0.000374,-0.000026
0.000000,0.000000,0.000000,-0.000000,0.000000,0.000000,-0.000000,-0.000000,-0.000000,-0.000000,-0.000000,-0.000000,-0.000000,-0.000000,0.000000,-0.000000,-0.000000
0.000000,0.000000,-0.000000,-0.000000,0.000000,-0.000000,0.000000,-0.000000,-0.000000,0.000000,-0.000000,-0.000000,-0.000000,-0.000000,-0.000000,-0.000000,-0.000000
0.000000,-0.000000,-0.000000,0.000000,0.000000,0.000000,-0.000000,0.000000,-0.000000,-0.000000,0.000000,-0.000000,0.000000,0.000000,-0.000000,0.000000,0.000000
0.000000,0.000000,0.000000,-0.000000,0.000000,0.000000,0.000000,-0.000000,0.000000,-0.000000,-0.000000,-0.000000,0.000000,0.000000,-0.000000,-0.000000,0.000000
0.000000,0.000000,-0.000026,-0.000000,-0.000207,-0.000000,0.001018,-0.001210,0.000007,0.002671,0.000070,0.000000,-0.001440,-0.000000,-0.000007,0.000504,-0.000013
0.000000,-0.000000,-0.054690,0.000000,-0.000125,0.000000,-0.000390,-0.099719,-0.000297,0.031251,-0.000443,-0.000398,-0.001680,-0.000065,0.000038,-0.009654,0.031802
0.000000,-0.000000,-0.001826,0.000000,0.002741,0.000000,0.005162,-0.000441,0.066640,-0.000488,0.002969,0.000014,-0.128717,0.000186,0.000092,-0.026289,0.000853
0.000000,-0.000000,-0.163135,0.000000,0.001005,-0.000000,0.025238,-0.045787,0.030377,0.007350,0.000305,0.000126,-0.081786,0.150339,0.000058,-0.041634,-0.003452
0.000000,0.000000,-0.044889,-0.000000,0.020699,0.000000,0.000855,0.000003,0.003491,0.002004,-0.020030,-0.060645,-0.039492,0.026301,0.002749,-0.015851,-0.008884
0.000000,0.000000,-0.000533,-0.000000,0.026563,0.000000,0.002291,-0.056686,-0.005579,-0.005528,-0.002342,-0.127545,-0.060917,-0.086420,0.005251,0.017966,-0.002362
0.000000,0.000000,-0.002217,-0.000000,0.113304,-0.000000,-0.003389,-0.020288,-0.006515,-0.008127,0.333961,-0.002279,0.057251,0.059799,-0.013717,-0.048496,0.182465
0.000000,-0.000000,-0.009734,0.000000,-0.018328,-0.000000,-0.018805,-0.020747,0.076455,0.001516,0.137258,-0.000269,0.027659,0.090670,-0.052695,0.020258,0.036838
0.000000,0.000000,-0.042525,-0.000000,-0.091818,0.000000,0.108481,0.013896,0.029936,0.171801,0.087590,0.107732,0.007258,0.050074,-0.025893,0.099806,0.048348
0.000000,0.000000,-0.014339,-0.000000,0.034052,-0.000000,0.218431,0.036742,-0.003325,0.051545,0.112142,-0.007808,0.007032,-0.000629,0.145404,0.126238,0.207921
0.000000,0.000000,-0.006834,0.000000,-0.142323,-0.000000,0.149366,0.003507,-0.004298,0.067611,0.045293,-0.022742,0.069835,-0.020134,-0.083901,0.084252,-0.001028
0.000000,-0.000000,0.014398,-0.000000,-0.098131,-0.000000,-0.008063,-0.051557,-0.003094,-0.008643,0.213010,-0.001760,0.108425,0.012102,-0.053981,0.039521,0.028905
0.000000,-0.000000,0.073617,-0.000000,-0.051987,-0.000000,-0.021270,-0.021051,-0.001762,-0.004308,0.091438,-0.039737,0.010247,0.003146,0.015814,0.179177,-0.043091
0.000000,-0.000000,0.000583,0.000000,-0.160131,-0.000000,0.022407,-0.000960,-0.000281,-0.004373,-0.009965,-0.106304,-0.022512,0.000896,-0.125475,0.174440,-0.145240
0.000000,0.000000,0.067908,0.000000,-0.013823,-0.000000,0.048733,-0.039402,0.021416,-0.010873,0.276477,0.008367,0.004563,-0.061548,0.015110,0.118818,-0.052542
0.000000,-0.000000,0.076344,-0.000000,-0.146836,0.000000,-0.113176,-0.012921,0.001537,-0.061306,0.000997,0.004768,-0.046856,0.008262,-0.297404,0.083810,-0.162124
0.000000,0.000000,-0.004377,0.000000,0.056475,-0.000000,-0.009713,0.017021,0.027512,-0.015688,0.045376,0.063696,-0.056621,-0.005613,-0.489038,0.109981,-0.001773
0.000000,-0.000000,0.042046,-0.000000,-0.021328,-0.000000,0.021325,0.064914,0.008029,-0.030343,0.038481,0.001322,-0.026310,-0.035477,-0.544076,0.001477,0.001931
0.000000,-0.000000,0.006863,0.000000,-0.073624,-0.000000,0.008543,-0.032735,-0.027810,-0.038120,0.062555,0.035162,-0.050550,-0.093128,-0.026889,-0.069782,-0.084716
0.000000,-0.000000,0.019161,-0.000000,0.048984,-0.000000,0.059430,-0.001605,-0.001918,-0.005456,-0.092104,0.022236,-0.002876,0.013552,-0.160966,0.105829,-0.001877
0.000000,0.000000,0.000292,0.000000,0.241479,0.000000,0.000906,0.071200,-0.001571,0.000677,0.011551,0.001140,-0.002727,0.000241,-0.037055,0.000962,0.005458
0.000000,0.000000,0.001679,0.000000,0.118516,0.000000,0.000016,0.000059,0.015216,0.060368,-0.000685,0.130154,-0.001747,-0.025261,-0.003785,0.002881,-0.000354
0.000000,0.000000,-0.008635,-0.000000,0.009816,-0.000000,-0.003939,-0.000000,0.001902,0.001223,0.001959,0.032091,0.003368,-0.020609,0.000041,0.017421,-0.001517
0.000000,-0.000000,-0.000372,-0.000000,0.000010,-0.000000,-0.000017,-0.000011,0.000360,0.000539,0.000548,0.001801,0.000011,-0.000000,0.000000,0.000000,-0.000828
0.000000,0.000000,0.000000,0.000000,0.000000,0.000000,0.000000,0.000000,-0.000000,-0.000000,0.000000,0.000000,-0.000000,0.000000,0.000000,-0.000000,-0.000000
0.000000,0.000000,0.000000,0.000000,0.000000,-0.000000,-0.000000,0.000000,0.000000,0.000000,-0.000000,-0.000000,-0.000000,-0.000000,-0.000000,0.000000,0.000000
0.000000,-0.000000,-0.000000,0.000000,0.000000,0.000000,0.000000,0.000000,-0.000000,-0.000000,-0.000000,0.000000,-0.000000,0.000000,-0.000000,0.000000,0.000000
0.000000,0.000000,0.000000,-0.000000,0.000000,0.000000,-0.000000,-0.000000,-0.000014,0.000000,0.000107,0.000021,-0.000334,0.000035,0.000000,-0.000132,0.000000
0.000000,-0.000000,0.000000,-0.000000,-0.000206,0.000000,0.005837,-0.019728,-0.000113,0.000631,0.022668,-0.000000,-0.022979,0.000104,-0.000047,-0.000237,0.000127
0.000000,0.000000,-0.143080,0.000000,-0.000399,0.000000,0.000305,-0.151008,0.016356,0.004949,-0.000920,-0.034720,-0.001624,0.000125,-0.019746,-0.030556,0.060301
0.000000,0.000000,-0.000317,0.000000,0.039175,-0.000000,-0.077191,-0.210616,0.135778,0.000304,0.000022,-0.002216,-0.002427,-0.000069,-0.064967,-0.000537,0.001059
0.000000,0.000000,-0.196033,-0.000000,0.066207,-0.000000,-0.000861,-0.056402,0.000358,0.077725,0.067884,0.000756,-0.058595,0.050908,-0.002638,-0.001143,-0.005627
0.000000,-0.000000,-0.020323,0.000000,0.040855,0.000000,0.056025,0.000083,0.000477,0.061221,-0.107277,-0.002496,-0.174406,0.000276,0.000985,0.000347,-0.001792
0.000000,-0.000000,0.013020,-0.000000,0.007799,0.000000,-0.001516,0.000360,0.082986,-0.004002,0.242168,0.001408,0.031950,0.000227,0.001241,0.229220,-0.004292
0.000000,0.000000,0.003295,-0.000000,-0.006258,-0.000000,0.085957,0.004464,0.032917,-0.035657,0.009950,-0.015377,-0.031815,0.035048,0.014948,0.044767,-0.016136
0.000000,-0.000000,0.042925,-0.000000,-0.100084,0.000000,-0.008211,0.019996,0.012274,-0.011806,0.063629,0.133754,-0.074887,-0.001570,0.019069,0.172250,-0.019651
0.000000,-0.000000,0.024165,0.000000,-0.065038,0.000000,-0.052468,-0.106009,-0.006764,-0.010561,0.019330,0.011502,0.100384,0.014630,0.459882,-0.004064,0.004263
0.000000,-0.000000,0.037608,0.000000,-0.153077,0.000000,-0.005421,0.003433,0.084341,-0.028514,0.170702,0.014114,0.003238,0.059563,-0.162607,0.023221,-0.003215
0.000000,-0.000000,-0.010067,0.000000,-0.039888,0.000000,0.002440,0.009800,-0.018924,-0.021790,0.172698,-0.000136,0.018776,0.156683,-0.312265,0.037847,-0.113271
0.000000,0.000000,0.256411,0.000000,-0.279064,-0.000000,0.162067,-0.065470,-0.054868,0.037067,-0.100442,-0.008035,0.198533,0.078716,-0.292435,0.070734,-0.154324
0.000000,-0.000000,0.091697,0.000000,-0.054799,-0.000000,0.000760,0.043088,0.028984,0.001747,0.184835,0.046208,0.111927,-0.052720,0.178230,0.053356,-0.013402
0.000000,0.000000,0.017800,-0.000000,-0.217652,0.000000,-0.167756,0.018166,0.033811,0.003249,-0.017602,-0.004532,-0.051540,-0.008308,-0.205710,0.072538,-0.132542
0.000000,0.000000,0.105655,0.000000,-0.016922,-0.000000,0.018175,0.009014,0.015247,-0.051769,0.001037,0.017869,-0.004295,0.099440,0.107223,-0.054269,-0.158429
0.000000,0.000000,0.056745,-0.000000,-0.136405,0.000000,0.002253,-0.017181,0.009123,-0.049618,0.050260,0.069016,-0.042324,-0.074058,0.113116,0.112556,0.054129
0.000000,0.000000,0.162836,0.000000,-0.008893,0.000000,0.002557,-0.073560,-0.000363,0.012947,0.023658,-0.041349,-0.004224,0.043718,0.000510,-0.032600,-0.192235
0.000000,0.000000,0.176674,-0.000000,-0.114849,-0.000000,-0.000583,0.032526,0.000701,0.014386,0.126516,0.017908,-0.017689,0.013454,-0.121350,0.002209,-0.051660
0.000000,0.000000,0.250188,-0.000000,-0.007514,-0.000000,-0.024569,-0.000099,-0.036381,-0.003419,0.083952,-0.000043,0.074920,-0.009213,-0.047969,-0.068322,0.000674
0.000000,0.000000,0.086431,0.000000,0.021105,-0.000000,-0.000253,0.013670,0.000212,-0.118424,-0.047407,0.244503,0.074844,0.040802,-0.049799,0.052937,-0.095863
0.000000,0.000000,0.000955,-0.000000,0.024780,-0.000000,0.388335,0.068492,0.002566,-0.068121,0.047394,-0.004857,-0.012181,0.001913,-0.009924,-0.003191,-0.111221
0.000000,-0.000000,-0.000017,-0.000000,0.209236,0.000000,0.003886,-0.005068,0.018604,0.002773,0.001251,-0.024330,-0.001725,-0.034193,0.066322,-0.038219,-0.001066
0.000000,-0.000000,-0.033092,0.000000,0.098724,-0.000000,-0.000116,-0.000910,0.022190,0.001287,0.000863,0.057113,-0.001291,-0.015383,0.075119,-0.009580,-0.000575
0.000000,-0.000000,0.000000,-0.000000,0.000107,-0.000000,-0.000032,-0.000116,0.000532,-0.000035,0.000101,0.000727,0.000035,-0.000000,0.000226,-0.000000,-0.000097
0.000000,0.000000,0.000000,0.000000,0.000000,-0.000000,0.000000,-0.000000,0.000000,-0.000000,-0.000000,0.000000,-0.000000,-0.000000,0.000000,-0.000000,-0.000000
0.000000,0.000000,0.000000,-0.000000,-0.000000,-0.000000,-0.000000,0.000000,-0.000000,-0.000000,-0.000000,-0.000000,0.000000,0.000000,-0.000000,0.000000,0.000000
0.000000,-0.000000,-0.000000,0.000000,-0.000163,0.000000,0.000000,-0.000049,-0.000085,-0.000019,0.000007,0.000000,-0.000131,0.000000,-0.000000,-0.000000,0.000000
0.000000,0.000000,-0.000000,-0.000000,-0.000095,-0.000000,-0.000000,-0.000019,-0.000047,0.000000,0.000000,-0.000000,-0.000197,0.000000,-0.000000,-0.000011,-0.000000
0.000000,0.000000,-0.000000,0.000000,-0.000117,0.000000,0.000640,-0.000273,0.000065,0.000439,0.004245,-0.000179,-0.022804,0.000231,-0.000027,-0.001617,0.000021
0.000000,-0.000000,-0.192925,-0.000000,-0.003686,0.000000,-0.002317,-0.000895,0.084014,-0.000054,-0.000195,-0.094802,-0.001616,0.000279,-0.026803,-0.002410,0.156111
0.000000,0.000000,-0.015034,-0.000000,-0.002428,0.000000,-0.145976,-0.001900,0.068412,-0.006362,0.058636,0.012961,-0.029336,0.000406,-0.304408,-0.002128,0.020358
0.000000,-0.000000,-0.011030,0.000000,0.000128,0.000000,0.000243,0.030756,-0.010707,-0.014638,0.115521,-0.020104,-0.004435,-0.010833,0.001078,0.001364,-0.005319
0.000000,-0.000000,-0.030561,-0.000000,0.004495,-0.000000,0.056779,0.067398,-0.014360,-0.005577,0.000134,-0.053728,-0.098940,0.000234,0.000256,-0.018910,0.028590
0.000000,0.000000,0.030128,0.000000,-0.021696,-0.000000,-0.001674,0.008113,-0.031216,0.021631,0.254436,0.086290,-0.027569,0.191744,0.027758,0.033253,-0.006485
0.000000,0.000000,-0.049116,0.000000,-0.009990,0.000000,0.004477,0.095380,0.018560,-0.025598,-0.007536,0.005049,-0.026515,0.021261,0.067517,0.005902,-0.082408
0.000000,-0.000000,-0.003792,0.000000,-0.038503,-0.000000,0.001602,0.001198,0.017782,-0.078351,-0.009635,0.019060,-0.000651,0.075186,0.024205,-0.007700,0.003276
0.000000,0.000000,0.140758,-0.000000,-0.026880,-0.000000,-0.051917,0.019660,-0.034231,-0.041736,0.248737,0.005150,0.033357,0.106547,0.501286,-0.009819,0.012306
0.000000,0.000000,0.000235,0.000000,-0.021605,-0.000000,0.006708,-0.002047,-0.104565,0.005821,0.023099,0.109540,-0.086755,-0.036166,-0.601605,0.080724,0.003085
0.000000,0.000000,0.085730,0.000000,-0.028550,0.000000,-0.010116,0.178966,0.046199,0.077810,0.112469,0.000020,0.100386,-0.005057,0.027822,0.060297,-0.003185
0.000000,0.000000,-0.025561,-0.000000,-0.048944,0.000000,0.034027,0.007042,-0.169576,0.027021,0.099010,-0.006053,0.031853,0.121002,-1.032616,0.172608,-0.025060
0.000000,-0.000000,0.006515,0.000000,-0.052384,0.000000,0.028380,-0.047374,0.022169,0.004545,0.048041,0.047719,0.012409,0.196540,-0.006193,0.045646,-0.277567
0.000000,0.000000,-0.002770,0.000000,-0.127579,-0.000000,-0.029874,-0.024968,-0.149873,-0.063367,0.163398,0.259855,0.119187,-0.023812,-0.005946,0.143809,-0.288610
0.000000,0.000000,0.071409,0.000000,-0.167464,-0.000000,0.009243,-0.083873,-0.075806,-0.000635,-0.002322,0.052602,0.064085,0.069203,0.045595,-0.020561,0.009400
0.000000,0.000000,0.139111,-0.000000,-0.011009,0.000000,-0.016222,-0.019907,0.021627,-0.046460,0.158225,0.000405,0.004693,0.001874,-0.243415,-0.006919,-0.274889
0.000000,-0.000000,0.327199,0.000000,-0.101421,-0.000000,-0.020593,0.040040,-0.000166,-0.057975,0.006447,0.072797,0.148090,0.007919,0.018375,0.007252,0.006686
0.000000,0.000000,0.053310,-0.000000,0.010129,-0.000000,0.064055,0.001856,0.041567,-0.085386,0.004265,0.206286,0.014844,0.025722,0.039125,0.005507,-0.050893
0.000000,0.000000,0.071656,-0.000000,-0.058403,0.000000,0.018476,0.003053,-0.004499,-0.002967,0.027773,0.045326,-0.002862,-0.012719,0.013131,0.004908,-0.098351
0.000000,-0.000000,0.014420,0.000000,-0.003116,0.000000,-0.001204,-0.000088,-0.019323,0.003738,0.114082,0.070495,0.056484,0.045288,-0.193855,0.063074,-0.109728
0.000000,-0.000000,0.045963,0.000000,0.005222,0.000000,-0.019129,0.148298,0.000322,0.001689,0.001680,0.335683,0.001188,0.002010,-0.012557,0.078762,-0.003061
0.000000,-0.000000,-0.000581,0.000000,0.341594,0.000000,-0.000447,0.006133,0.001863,0.002527,0.055302,0.032075,-0.002378,-0.204668,0.021660,-0.033752,-0.002425
0.000000,0.000000,-0.001707,-0.000000,0.137807,0.000000,0.000214,-0.000154,0.000436,0.001256,0.033894,0.026169,-0.001591,-0.002147,0.086587,-0.113694,-0.017288
0.000000,-0.000000,0.000000,-0.000000,-0.000055,0.000000,-0.001230,-0.000308,0.000196,-0.000031,0.000230,0.000549,0.000034,-0.000000,0.000053,-0.000524,0.000000
0.000000,-0.000000,-0.000000,0.000000,-0.000257,0.000000,-0.000073,-0.000000,0.000000,0.000000,-0.000000,0.000000,-0.000000,0.000000,-0.000000,0.000000,0.000047
0.000000,0.000000,0.000000,-0.000000,-0.000000,-0.000000,0.000000,0.000000,-0.000000,0.000000,-0.000000,-0.000000,-0.000000,0.000000,0.000000,-0.000000,0.000000
0.000000,0.000000,0.000000,-0.000000,-0.000244,-0.000000,0.000000,-0.000081,-0.000126,-0.000042,0.000017,0.000000,-0.000194,0.000000,0.000000,-0.000000,-0.000000
0.000000,0.000000,0.000020,0.000000,-0.000242,-0.000000,0.000000,-0.000097,-0.000349,-0.000042,0.000026,0.000000,-0.000565,0.000000,-0.000000,-0.000000,0.000077
0.000000,0.000000,0.000062,0.000000,-0.000536,-0.000000,0.000173,-0.000839,0.000402,0.011389,0.000376,-0.004505,0.000717,-0.000000,-0.000001,-0.000412,0.000018
0.000000,-0.000000,-0.090297,-0.000000,-0.041728,-0.000000,-0.016636,-0.001566,0.046006,0.011857,0.041741,-0.002199,-0.043802,0.000330,-0.115508,-0.005840,0.070933
0.000000,-0.000000,-0.181523,-0.000000,-0.000700,-0.000000,0.002834,-0.240001,0.138455,-0.041707,0.141688,0.037385,-0.040990,0.000827,0.000367,0.000090,0.067364
0.000000,-0.000000,-0.009308,0.000000,-0.000696,0.000000,0.035120,-0.012083,0.076970,-0.006386,0.214116,0.002438,-0.021335,-0.005708,0.056980,0.047792,-0.005940
0.000000,0.000000,-0.025439,0.000000,-0.005545,-0.000000,0.006798,0.020898,0.036866,0.014073,0.089992,-0.003565,-0.020484,-0.024084,0.027640,0.011632,-0.001245
0.000000,-0.000000,-0.006128,-0.000000,-0.031791,0.000000,-0.003416,0.008937,0.049986,0.001498,0.007996,0.003432,-0.105767,0.022705,0.034551,0.006033,-0.002976
0.000000,0.000000,-0.023884,0.000000,-0.040439,0.000000,0.002948,0.008439,-0.029931,0.006966,0.272279,0.036587,-0.016054,0.009331,0.037985,0.001979,-0.004836
0.000000,-0.000000,-0.069147,0.000000,-0.102749,0.000000,0.010223,0.005807,0.017132,0.120857,-0.013400,-0.006991,0.004463,-0.015085,0.287193,0.160809,-0.023904
0.000000,-0.000000,0.054166,-0.000000,-0.054879,0.000000,0.001873,0.062484,0.048105,0.036469,0.000350,-0.002038,-0.084884,-0.014245,0.020939,-0.003687,-0.003335
0.000000,0.000000,0.017962,-0.000000,-0.107556,-0.000000,0.181092,-0.029745,0.080535,-0.020852,-0.014625,0.053364,-0.121960,0.043954,0.001087,-0.037656,0.067471
0.000000,0.000000,-0.206865,0.000000,-0.077113,0.000000,-0.005072,-0.001378,-0.006375,0.118911,0.026753,0.044326,0.015320,-0.207785,-0.410686,0.018929,0.003050
0.000000,-0.000000,-0.132770,0.000000,-0.035417,0.000000,0.028938,-0.014016,0.031619,0.067889,0.000707,0.083597,-0.001111,-0.088637,-0.021264,-0.128077,0.140069
0.000000,0.000000,-0.136999,-0.000000,-0.266450,-0.000000,-0.003600,-0.000294,-0.116163,0.005623,0.008166,0.121863,0.070145,-0.046799,-0.447991,0.004537,-0.151970
0.000000,-0.000000,-0.338017,-0.000000,0.001493,-0.000000,0.003616,-0.104715,-0.054930,0.010280,-0.095671,-0.003352,0.094666,-0.021596,-0.129926,-0.072851,-0.150417
0.000000,0.000000,-0.435814,-0.000000,-0.019688,0.000000,0.087793,0.020153,-0.095126,-0.028883,0.125481,0.427435,0.121206,-0.110632,-0.117722,-0.044597,-0.077209
0.000000,0.000000,-0.446399,-0.000000,0.001254,-0.000000,-0.009458,-0.003693,-0.107072,-0.000151,0.024698,0.265291,0.007159,-0.005872,-0.264197,-0.121610,-0.098462
0.000000,-0.000000,-0.233694,-0.000000,0.042909,0.000000,0.189655,-0.000763,-0.101348,-0.005141,0.073724,0.109769,0.111088,-0.018047,-0.086736,0.012471,-0.039354
0.000000,0.000000,0.003000,0.000000,0.003039,0.000000,0.007044,-0.095194,-0.236876,-0.003314,0.081416,0.149262,0.089772,-0.099454,0.351107,0.000599,-0.002810
0.000000,-0.000000,0.001470,0.000000,0.160614,-0.000000,-0.003730,0.026555,-0.006690,-0.142019,0.105002,0.011717,-0.048282,-0.143553,-0.006526,-0.067906,0.045134
0.000000,0.000000,-0.045773,-0.000000,0.009760,-0.000000,0.000872,-0.017645,0.177867,0.008269,0.018749,0.203711,-0.005562,0.014866,-0.169877,0.001287,-0.035424
0.000000,0.000000,-0.352032,-0.000000,-0.000086,-0.000000,-0.027355,0.030766,-0.002054,0.000514,0.195918,0.004140,0.026564,-0.000267,-0.004885,0.137005,-0.018076
0.000000,-0.000000,-0.187883,0.000000,0.001426,0.000000,-0.026074,0.065956,0.003463,0.001468,0.000271,0.293017,0.019713,-0.000493,0.024030,0.003206,-0.011297
0.000000,-0.000000,-0.019829,0.000000,0.010756,-0.000000,-0.000391,0.035011,0.004367,0.000909,0.110741,0.362438,0.000205,-0.000861,0.020388,-0.000300,-0.000899
0.000000,-0.000000,0.000000,-0.000000,-0.000000,-0.000000,-0.000127,-0.000339,0.000304,0.000014,0.002289,0.001055,0.000006,0.001345,-0.000000,-0.000446,-0.000090
0.000000,0.000000,-0.000000,-0.000000,0.000000,0.000000,0.000688,-0.000233,-0.000112,0.000108,0.000025,-0.000074,-0.001132,0.007786,-0.000000,-0.000307,0.000000
0.000000,-0.000000,0.000000,-0.000000,-0.000000,-0.000000,0.000000,-0.000000,-0.000000,0.000000,0.000000,-0.000000,0.000000,0.000000,-0.000000,0.000000,0.000000
0.000000,0.000000,-0.000000,-0.000000,-0.000244,0.000000,-0.000000,-0.000079,-0.000121,-0.000042,0.000011,0.000000,-0.000191,-0.000000,0.000000,0.000000,0.000000
0.000000,0.000000,0.000000,0.000000,-0.000242,0.000000,0.000000,-0.000084,-0.000215,-0.000042,0.000026,0.000000,-0.000486,-0.000000,0.000000,0.000000,0.000000
0.000000,-0.000000,-0.000063,0.000000,-0.000400,0.000000,0.000380,-0.020003,0.004042,0.056948,0.001853,0.000000,-0.000121,0.000000,-0.000016,-0.000154,-0.000520
0.000000,0.000000,-0.030058,0.000000,0.001169,0.000000,0.000310,0.002750,0.041009,0.000033,0.074851,-0.069008,-0.093038,-0.000746,0.000021,-0.036636,0.003577
0.000000,-0.000000,-0.043926,0.000000,-0.001238,-0.000000,0.066401,-0.001358,0.012660,-0.002336,0.084235,0.002887,-0.060170,-0.002414,0.048583,0.002511,0.205872
0.000000,-0.000000,0.002685,0.000000,-0.066761,-0.000000,0.026430,-0.000808,-0.001884,-0.002318,0.100460,0.002491,0.004470,-0.002151,0.157140,0.168944,0.113773
0.000000,-0.000000,0.059109,-0.000000,0.047759,0.000000,-0.064595,0.001329,0.033032,-0.005360,-0.001562,0.000430,-0.000741,0.002924,0.039228,0.003728,0.074509
0.000000,0.000000,0.184920,0.000000,-0.003062,0.000000,-0.223246,0.001123,0.015009,0.010661,0.011531,-0.008892,-0.071294,0.112519,0.013987,-0.063155,0.210149
0.000000,-0.000000,0.051495,-0.000000,0.024441,-0.000000,-0.065206,0.005713,0.051330,-0.076317,0.002148,-0.057165,-0.075823,0.136237,0.089177,0.024082,-0.001223
0.000000,-0.000000,0.001920,0.000000,0.005104,-0.000000,-0.158602,0.073535,0.005436,0.062794,0.081844,0.006581,-0.166846,0.181124,0.115652,0.093565,0.178296
0.000000,0.000000,-0.025642,0.000000,-0.178900,0.000000,-0.086228,0.012138,-0.075856,-0.018446,0.023380,0.010930,-0.089357,0.003196,0.008298,-0.000527,0.021650
0.000000,0.000000,-0.007620,0.000000,-0.030038,0.000000,-0.036851,0.164070,-0.005749,0.104711,0.061384,-0.005697,-0.013665,-0.110920,-0.034406,0.027454,0.012536
0.000000,-0.000000,-0.061357,0.000000,-0.468317,0.000000,0.010188,-0.057914,-0.000982,0.046623,-0.030685,0.097760,-0.053794,-0.186183,0.027125,-0.106047,0.072502
0.000000,-0.000000,-0.233549,0.000000,-0.315515,0.000000,0.003214,-0.001123,0.017913,0.008069,-0.005271,-0.004897,0.136785,-0.344635,-0.034293,-0.133573,0.008982
0.000000,-0.000000,-0.152578,0.000000,0.023452,-0.000000,0.093756,0.006271,-0.041755,-0.018375,-0.069466,0.029359,-0.183073,-0.159951,-0.469616,-0.151758,0.003637
0.000000,0.000000,-0.182515,-0.000000,-0.321851,0.000000,0.001683,-0.095201,-0.001174,-0.155831,-0.070689,-0.016196,-0.083934,0.014915,-0.682286,0.007701,-0.186554
0.000000,-0.000000,-0.451385,-0.000000,0.001602,0.000000,-0.013088,-0.034618,0.001095,-0.047244,-0.107271,-0.036321,-0.082578,-0.008421,-0.013456,-0.007676,-0.002684
0.000000,-0.000000,-0.756988,-0.000000,-0.002101,-0.000000,0.003938,0.009257,-0.007981,-0.026956,0.002768,-0.003412,-0.186079,-0.031708,0.011551,0.287840,0.029409
0.000000,-0.000000,-1.254693,0.000000,-0.081392,-0.000000,-0.010996,0.002119,0.038603,-0.038842,-0.003689,0.020287,-0.060057,-0.024683,-0.057370,0.088866,-0.009279
0.000000,0.000000,-1.346758,0.000000,-0.004220,-0.000000,0.022921,0.084699,0.103905,0.014977,0.000226,0.201864,-0.002766,-0.066262,-0.065274,0.013094,-0.006799
0.000000,0.000000,-1.022996,-0.000000,-0.002689,0.000000,0.004935,-0.045662,-0.000995,-0.019935,0.030508,0.059220,-0.045452,-0.029682,-0.041802,0.009514,0.012879
0.000000,0.000000,-1.136638,0.000000,0.003887,-0.000000,0.115771,-0.015896,0.000479,-0.020162,0.003131,0.082092,-0.028736,-0.051241,-0.023972,0.095464,-0.002881
0.000000,-0.000000,-0.919429,0.000000,-0.045191,-0.000000,-0.006500,0.154907,-0.001850,0.006399,0.050138,0.000494,-0.002971,-0.008443,-0.000590,0.438635,-0.003386
0.000000,0.000000,-0.382383,-0.000000,0.033969,-0.000000,-0.003971,0.001837,0.116898,-0.000817,0.024841,0.507692,-0.004040,0.002440,0.098611,0.001417,0.001176
0.000000,0.000000,-0.026351,0.000000,0.042132,-0.000000,0.002329,-0.009525,0.111206,0.026018,0.015999,0.499788,-0.080649,0.007598,-0.000000,-0.022259,-0.009594
0.000000,0.000000,-0.000000,0.000000,-0.000843,0.000000,0.000048,0.000125,-0.000024,0.000000,0.001140,-0.000063,0.000097,0.001672,0.000000,0.000000,0.000385
0.000000,0.000000,0.000000,-0.000000,0.000000,-0.000000,-0.000015,0.000062,-0.000006,-0.000000,0.000029,-0.000083,0.000047,-0.000027,0.000000,0.000000,-0.000000
0.000000,-0.000000,-0.000000,-0.000000,0.000000,0.000000,0.000000,-0.000000,-0.000000,0.000000,0.000000,-0.000000,-0.000000,0.000000,0.000000,-0.000000,0.000000
0.000000,0.000000,-0.000000,0.000000,-0.000113,-0.000000,0.000000,-0.000027,-0.000067,-0.000004,0.000060,0.000000,-0.000089,0.000000,-0.000000,0.000000,0.000000
0.000000,-0.000000,-0.000000,0.000000,-0.001617,0.000000,0.000168,-0.000084,-0.000209,-0.000042,0.000180,0.000000,-0.192222,-0.000000,-0.000000,0.000000,-0.000000
0.000000,-0.000000,-0.002011,0.000000,-0.000011,-0.000000,0.015479,-0.078414,0.000000,0.000159,0.000250,0.000260,-0.046755,0.000000,-0.000000,0.000052,0.000048
0.000000,0.000000,-0.031837,-0.000000,-0.033840,-0.000000,0.006471,0.002972,0.008726,-0.000457,-0.001809,-0.037776,-0.002927,-0.232411,0.002069,0.001457,0.131809
0.000000,-0.000000,0.000622,0.000000,0.000488,0.000000,0.019058,0.000713,-0.002312,0.031597,-0.005114,-0.003558,-0.055988,-0.000175,0.033043,-0.005257,0.017886
0.000000,0.000000,0.096847,-0.000000,-0.005861,0.000000,0.004219,-0.002466,-0.209108,-0.007247,0.188769,-0.016708,0.005230,0.005190,0.270126,0.023637,-0.000273
0.000000,0.000000,0.001802,0.000000,0.030512,0.000000,0.005044,0.011139,-0.041866,0.003277,0.211630,-0.003398,0.001122,0.001555,0.387420,0.002494,0.024389
0.000000,0.000000,-0.007325,0.000000,-0.055682,0.000000,-0.000208,-0.009476,-0.000664,0.005094,0.160006,-0.033506,0.020091,0.028298,0.274993,-0.003997,-0.006424
0.000000,-0.000000,-0.002916,0.000000,0.119539,0.000000,-0.020872,0.109649,-0.221137,-0.052869,0.256411,0.005063,0.000048,0.060699,0.152371,-0.094343,0.067604
0.000000,-0.000000,0.000809,0.000000,0.052190,-0.000000,-0.001856,0.022596,-0.094573,0.008133,0.239234,-0.012775,-0.129124,-0.494443,0.438651,-0.175005,-0.102385
0.000000,0.000000,0.005748,0.000000,-0.081835,-0.000000,-0.063164,-0.044496,-0.037365,-0.097438,0.050485,0.016823,-0.064234,-0.785842,-0.013388,-0.007966,0.001306
0.000000,-0.000000,-0.128052,-0.000000,0.001227,0.000000,-0.010084,0.014150,0.204216,-0.019683,-0.066941,-0.005355,-0.074337,-0.555537,-0.043311,-0.142617,-0.019355
0.000000,0.000000,0.001399,0.000000,-0.512791,-0.000000,0.026041,-0.134052,0.233946,-0.001000,-0.211935,-0.005443,0.005320,-0.474834,-0.263117,0.024738,-0.003028
0.000000,0.000000,0.104387,-0.000000,-0.328284,-0.000000,0.095121,0.118556,0.247408,-0.000801,-0.033935,-0.008675,0.035901,0.004200,0.300748,-0.041232,0.047096
0.000000,-0.000000,-0.010277,-0.000000,-0.106753,-0.000000,0.069765,0.153292,0.097787,-0.029647,-0.053391,-0.087524,0.002402,0.118835,-0.171007,-0.035597,-0.163182
0.000000,-0.000000,0.016882,-0.000000,-0.036736,-0.000000,-0.024098,0.192451,0.196385,-0.000714,-0.156590,-0.114889,-0.167453,0.039948,-0.147883,-0.066868,-0.071294
0.000000,0.000000,0.119279,-0.000000,-0.116208,-0.000000,0.023095,-0.009328,0.105944,0.004763,0.000103,-0.230202,-0.154598,0.002161,-0.054593,-0.000307,-0.121308
0.000000,-0.000000,-0.014462,-0.000000,-0.116481,0.000000,0.001988,-0.007666,0.267278,-0.016327,0.004979,-0.124393,-0.167702,-0.034203,0.028142,-0.003505,0.008733
0.000000,-0.000000,-0.000609,-0.000000,-0.043907,0.000000,0.109380,0.081464,0.063113,0.003454,-0.173666,-0.000887,0.014161,-0.005477,0.165094,0.003662,0.017312
0.000000,0.000000,-0.152415,-0.000000,-0.333049,0.000000,0.003807,0.105855,0.130058,0.132889,-0.072066,0.007623,-0.122547,-0.006875,-0.026524,-0.052255,0.085661
0.000000,0.000000,-0.040827,-0.000000,-0.176159,0.000000,-0.006340,0.164985,-0.002309,0.000045,-0.172934,0.036305,-0.013307,-0.012094,0.136242,0.142902,-0.007995
0.000000,-0.000000,-0.055207,0.000000,0.000535,0.000000,0.011423,0.006042,0.002317,0.025727,0.007535,0.271691,-0.117393,-0.001983,0.381613,-0.005172,-0.002677
0.000000,-0.000000,-0.006907,-0.000000,-0.080211,0.000000,-0.001646,0.245009,0.006848,0.114418,-0.009750,0.015888,-0.046946,0.002948,0.362128,-0.001669,0.085395
0.000000,-0.000000,-0.007073,-0.000000,-0.052437,-0.000000,-0.136993,0.106941,0.290256,0.049530,-0.000895,0.000889,-0.016209,0.000957,0.128242,0.378191,0.074994
0.000000,-0.000000,-0.000782,0.000000,0.005395,0.000000,-0.006914,0.000126,0.090524,0.035924,0.000601,0.068732,-0.001699,-0.000024,0.001444,-0.002282,0.000017
0.000000,-0.000000,0.000000,-0.000000,-0.000971,0.000000,0.000000,0.001212,0.000000,0.000000,0.066347,-0.000000,0.000104,-0.000011,0.000023,0.000000,0.000141
0.000000,0.000000,0.000000,-0.000000,-0.000000,0.000000,-0.000000,-0.000000,0.000000,0.000000,0.000000,-0.000000,0.000000,0.000000,0.000000,-0.000000,-0.000000
0.000000,0.000000,-0.000000,-0.000000,0.000000,0.000000,0.000000,0.000000,0.000000,0.000000,-0.000000,0.000000,0.000000,0.000000,-0.000000,-0.000000,-0.000000
0.000000,0.000000,0.000000,0.000000,0.000000,0.000000,0.000000,0.000000,-0.000103,0.000000,0.000139,-0.000000,-0.000000,0.000000,0.000000,-0.000000,-0.000000
0.000000,0.000000,-0.000000,0.000000,-0.000421,-0.000000,-0.000000,-0.000059,-0.000260,-0.000025,0.000216,-0.000000,-0.101157,-0.000000,-0.000000,0.000000,0.000000
0.000000,0.000000,-0.000089,-0.000000,-0.001768,0.000000,0.017252,0.000147,0.000109,-0.011760,0.001484,-0.000453,-0.141278,-0.024781,0.000070,0.003411,0.001712
0.000000,-0.000000,-0.032400,0.000000,-0.277366,-0.000000,0.006096,0.010855,0.000663,0.018017,0.070178,-0.004398,0.000203,-0.427504,0.002419,0.001796,-0.000848
0.000000,0.000000,-0.004143,0.000000,0.000581,0.000000,0.000839,0.000216,0.000310,0.022657,0.181636,-0.007713,-0.035298,-0.417107,0.024569,-0.095657,0.002180
0.000000,-0.000000,0.006324,0.000000,-0.012413,0.000000,-0.098696,0.018383,-0.135796,0.007907,0.006612,-0.001406,0.000973,-0.637565,0.165231,0.002031,-0.001854
0.000000,-0.000000,-0.015974,0.000000,0.056081,-0.000000,0.042126,-0.003235,-0.077462,0.007003,-0.003488,-0.036193,-0.080699,-0.897506,0.261623,-0.003081,0.017820
0.000000,-0.000000,-0.003074,-0.000000,-0.060713,0.000000,0.028389,-0.138628,-0.003635,-0.046515,-0.000686,0.033456,-0.126691,-1.230466,0.246183,-0.002985,-0.001955
0.000000,-0.000000,-0.000226,0.000000,-0.043164,0.000000,-0.056789,-0.055406,-0.010712,0.009940,-0.223374,0.051013,0.016340,-1.139392,0.572506,0.023499,0.006712
0.000000,0.000000,0.001622,0.000000,0.156226,-0.000000,-0.125312,-0.137220,0.178098,0.010131,-0.118834,0.060843,-0.004264,-0.645381,0.037816,-0.010836,-0.039409
0.000000,0.000000,-0.028291,0.000000,0.012477,-0.000000,0.193125,0.066317,-0.001489,-0.004746,-0.134763,-0.013798,-0.047054,-0.097745,0.038024,0.017386,-0.028157
0.000000,0.000000,-0.055512,-0.000000,0.149468,-0.000000,0.027664,-0.009481,0.259823,-0.008639,-0.276028,0.017314,0.013468,0.088039,0.016993,0.004005,-0.108108
0.000000,-0.000000,0.016698,0.000000,0.159315,-0.000000,0.453064,0.158020,0.091312,0.016549,-0.249393,0.071880,0.141944,0.029240,-0.086044,0.095548,-0.060269
0.000000,0.000000,-0.085655,0.000000,-0.014648,0.000000,0.109731,0.162466,0.309471,0.142224,-0.146844,-0.070038,0.025325,-0.004960,0.109239,0.060493,0.012702
0.000000,0.000000,-0.065896,0.000000,-0.021764,-0.000000,0.209730,0.106951,0.081364,0.082455,0.000567,-0.040547,-0.166489,0.003157,-0.569372,-0.097302,0.001562
0.000000,-0.000000,-0.042052,-0.000000,-0.074255,-0.000000,0.003002,-0.000219,0.112548,-0.085400,0.017619,-0.102659,-0.071804,0.066962,-0.039715,0.007507,-0.012387
0.000000,0.000000,0.038336,-0.000000,-0.190743,0.000000,0.010193,0.074599,-0.018007,0.005082,0.080756,-0.165685,-0.000497,-0.162026,-0.001864,-0.040994,0.002654
0.000000,0.000000,0.305122,0.000000,-0.049411,-0.000000,-0.000012,-0.179163,0.054517,0.007634,0.123283,-0.299491,-0.064641,-0.000517,0.007702,-0.133874,0.005953
0.000000,0.000000,0.002016,-0.000000,-0.139472,-0.000000,0.001766,-0.015019,0.003610,-0.274470,0.208438,-0.323965,0.007724,-0.109436,0.035793,-0.087845,0.003178
0.000000,-0.000000,0.038965,-0.000000,-0.031822,0.000000,-0.006906,0.004608,-0.059329,-0.002421,0.000793,-0.365699,-0.042247,-0.001649,-0.031501,-0.100005,0.134919
0.000000,-0.000000,-0.112178,0.000000,-0.004838,-0.000000,-0.005124,0.162149,-0.085570,-0.068431,-0.015301,-0.235211,-0.007166,0.002316,0.281982,0.004957,-0.032640
0.000000,-0.000000,-0.108653,-0.000000,-0.000007,-0.000000,0.003676,0.003616,-0.001596,0.004557,-0.017520,-0.000903,0.000683,-0.000474,0.166142,-0.069092,-0.070506
0.000000,-0.000000,-0.000944,-0.000000,-0.388510,0.000000,-0.124392,0.477783,-0.152536,0.112892,-0.011741,-0.312316,0.000734,0.002214,0.037997,0.004557,0.009762
0.000000,0.000000,-0.000927,-0.000000,-0.036421,-0.000000,-0.058452,0.020279,-0.049199,-0.000457,-0.011372,0.000574,0.001422,0.000929,0.013459,0.005866,0.374639
0.000000,-0.000000,-0.001365,-0.000000,0.000166,-0.000000,0.001099,-0.000011,-0.000458,0.000255,0.001289,-0.000003,-0.001110,0.013456,0.000532,-0.005584,0.000123
0.000000,-0.000000,-0.000104,-0.000000,0.000000,-0.000000,0.000000,0.000225,-0.000000,-0.000000,0.017287,-0.000000,-0.000665,0.000780,0.000000,-0.000000,-0.000216
0.000000,0.000000,-0.000134,0.000000,-0.000000,-0.000000,-0.000190,0.000000,0.000000,0.000000,-0.000000,-0.000000,0.000011,0.000000,0.000000,0.000000,0.000000
0.000000,-0.000000,0.000000,0.000000,-0.000000,0.000000,-0.000000,-0.000000,-0.000000,-0.000000,-0.000000,0.000000,-0.000000,0.000000,0.000000,0.000000,0.000000
0.000000,0.000000,0.000000,-0.000000,0.000000,-0.000000,0.000000,-0.000000,-0.000047,0.000000,0.000054,0.000000,-0.000000,-0.000000,-0.000000,-0.000000,-0.000000
0.000000,0.000000,-0.000000,0.000000,-0.000000,-0.000000,0.000000,0.000000,-0.000092,-0.000000,0.000106,-0.000000,-0.000350,0.000000,0.000000,0.000000,-0.000000
0.000000,-0.000000,0.000011,0.000000,-0.002174,0.000000,0.028663,-0.000033,0.000062,-0.018466,0.000139,-0.019022,-0.052317,-0.074786,0.000675,0.004352,0.003261
0.000000,0.000000,0.000723,-0.000000,0.000223,0.000000,0.028796,0.000472,-0.250238,0.045169,-0.011138,-0.088903,-0.138786,-0.026660,0.007461,0.001261,-0.015875
0.000000,-0.000000,-0.036069,-0.000000,0.004556,-0.000000,0.007156,0.000484,0.010699,0.000626,-0.116435,0.001759,-0.047497,-0.734248,0.072816,0.001409,0.048801
0.000000,0.000000,-0.021849,0.000000,0.059131,0.000000,-0.000434,-0.047133,-0.123666,0.021157,-0.041988,0.001139,-0.003319,-0.402851,0.126892,0.003446,-0.029159
0.000000,-0.000000,0.025112,-0.000000,0.053509,-0.000000,0.000094,-0.031610,-0.009681,-0.002126,0.043689,-0.013674,-0.017809,-0.177764,-0.001034,0.022261,0.001458
0.000000,-0.000000,-0.073616,-0.000000,0.184393,0.000000,-0.019007,-0.035886,0.007821,0.000524,0.027696,-0.066845,0.010472,-0.001215,0.346730,-0.010433,-0.053887
0.000000,-0.000000,-0.110589,0.000000,0.161122,-0.000000,0.005622,0.011755,0.080741,0.002759,0.002105,0.080353,-0.065527,0.003244,0.257475,0.062063,-0.048524
0.000000,-0.000000,-0.008679,-0.000000,0.261603,0.000000,0.000237,-0.187018,-0.014153,0.120049,0.147234,-0.007736,-0.026478,0.175855,1.300040,0.015129,-0.061072
0.000000,0.000000,-0.074618,-0.000000,0.207434,-0.000000,0.005414,0.077591,-0.010407,0.077924,-0.003646,0.062131,-0.092647,0.078322,0.651465,0.065606,-0.050270
0.000000,0.000000,0.008240,0.000000,0.491114,-0.000000,0.205270,0.342111,0.002176,0.276564,-0.022300,0.088077,0.101589,0.119712,-0.092124,0.164900,-0.125332
0.000000,0.000000,0.116175,-0.000000,0.061620,-0.000000,0.120900,0.075646,0.283538,0.007189,-0.001118,-0.002343,0.245885,0.100732,-0.521357,0.042143,0.030461
0.000000,0.000000,0.008204,0.000000,-0.004130,0.000000,-0.008889,0.064086,0.082187,0.222229,0.001573,0.071426,0.005125,0.001351,-0.076139,0.029319,0.047272
0.000000,0.000000,0.043673,0.000000,-0.002923,0.000000,0.125336,0.341418,0.177273,-0.109511,-0.068210,-0.104892,-0.031750,0.015311,-0.154955,-0.018567,-0.149109
0.000000,-0.000000,-0.006528,0.000000,-0.003908,-0.000000,0.010255,-0.004807,0.043060,0.059740,-0.003521,-0.020427,-0.008323,0.105356,0.147546,-0.241170,0.002969
0.000000,-0.000000,0.014952,0.000000,-0.011680,0.000000,0.000823,0.064077,-0.030216,0.008693,-0.012517,0.045897,-0.015383,-0.057473,-0.148296,-0.131719,-0.002140
0.000000,0.000000,-0.033403,-0.000000,0.013542,0.000000,-0.001005,-0.188997,-0.007122,-0.007977,0.167546,0.037047,0.098562,0.002076,0.294933,0.005941,0.004510
0.000000,0.000000,0.067641,-0.000000,-0.058085,0.000000,0.017753,-0.008251,-0.018728,0.034699,0.012554,-0.000105,0.195168,-0.106775,-0.114516,-0.074433,-0.001184
0.000000,-0.000000,0.000230,-0.000000,-0.001277,0.000000,-0.003204,0.180065,0.002097,0.001428,0.006336,0.003105,-0.041165,-0.052682,-0.017746,0.004522,0.030242
0.000000,-0.000000,0.004859,-0.000000,-0.003117,0.000000,0.012892,0.036286,-0.065975,-0.033637,0.030657,-0.397648,-0.013653,-0.001119,0.367868,-0.130870,-0.010729
0.000000,-0.000000,0.001686,0.000000,-0.003911,0.000000,-0.195811,0.009693,-0.081582,-0.001088,-0.023212,-0.230806,0.007239,-0.009820,0.349563,-0.094868,-0.000401
0.000000,-0.000000,-0.011222,-0.000000,-0.130684,0.000000,-0.091256,0.007728,-0.123863,0.002946,-0.313733,-0.585176,0.002905,-0.001835,0.784114,0.005514,0.000236
0.000000,0.000000,-0.006328,-0.000000,0.017600,-0.000000,0.007439,-0.015831,-0.142946,0.023033,-0.255398,-0.081630,-0.000243,0.058994,0.009238,0.006011,0.017299
0.000000,-0.000000,-0.122309,-0.000000,0.010551,0.000000,-0.000512,0.000009,-0.000486,-0.000354,-0.055198,-0.000101,-0.000035,0.120570,0.000326,-0.000681,-0.000196
0.000000,-0.000000,-0.035881,0.000000,0.000127,0.000000,-0.017992,-0.000000,0.000000,-0.000683,-0.001510,-0.000000,0.000291,0.092415,0.000000,0.000000,0.000208
0.000000,-0.000000,-0.001043,-0.000000,0.000172,-0.000000,-0.003631,-0.000075,0.000000,0.000000,-0.000104,-0.000000,0.000368,0.000215,0.000000,0.000000,0.000000
0.000000,-0.000000,-0.000000,0.000000,-0.000000,-0.000000,0.000000,0.000000,-0.000000,0.000000,0.000000,-0.000000,-0.000000,0.000000,-0.000000,0.000000,0.000000
0.000000,0.000000,0.000000,0.000000,-0.000000,-0.000000,-0.000000,0.000000,-0.000000,-0.000000,0.000000,0.000000,-0.000000,-0.000000,0.000000,-0.000000,-0.000000
0.000000,0.000000,0.000000,0.000000,-0.000000,0.000000,0.000000,-0.000000,-0.000003,-0.000000,0.000532,0.000053,-0.002136,0.000000,-0.000000,-0.000000,-0.000000
0.000000,0.000000,0.000257,0.000000,0.000445,0.000000,0.003419,0.000072,-0.000163,-0.000112,0.000377,-0.016167,-0.005781,-0.038612,0.000162,-0.000000,0.000980
0.000000,-0.000000,0.062237,-0.000000,0.001052,-0.000000,0.001374,-0.000139,-0.081555,0.002572,-0.002856,-0.037117,-0.017680,0.000019,0.000232,0.010826,-0.049335
0.000000,0.000000,-0.046772,-0.000000,0.163390,0.000000,-0.000743,0.000202,-0.286429,-0.001898,-0.235038,0.021964,-0.038540,0.000122,0.368073,0.005211,0.005940
0.000000,-0.000000,-0.009048,-0.000000,0.151537,-0.000000,-0.230998,-0.000521,-0.140839,0.061063,-0.029271,0.002336,0.062047,0.050203,0.301284,0.002836,-0.218956
0.000000,0.000000,0.058345,0.000000,0.189901,0.000000,0.000127,-0.004079,-0.091669,-0.013671,-0.120441,0.009087,-0.004601,0.141759,0.563879,0.013122,-0.196528
0.000000,0.000000,-0.039967,0.000000,0.104403,0.000000,-0.051570,-0.061779,-0.102723,-0.000371,0.009979,0.000615,-0.001686,0.031757,-0.016285,-0.048125,-0.137340
0.000000,-0.000000,0.017574,0.000000,0.098660,0.000000,0.000881,0.053482,-0.196918,0.075907,-0.097293,-0.073016,-0.009875,0.121164,-0.025083,-0.001806,-0.135012
0.000000,-0.000000,0.056358,-0.000000,0.114574,-0.000000,-0.033154,0.123916,-0.018110,0.006936,-0.003432,0.002034,-0.033206,0.063460,0.130694,0.000317,0.004115
0.000000,0.000000,-0.000419,-0.000000,0.200677,0.000000,0.138344,0.168590,0.035251,-0.029937,-0.069638,-0.011497,0.001777,0.022025,0.153225,0.124723,-0.107425
0.000000,0.000000,0.038692,-0.000000,0.155741,0.000000,0.133385,0.010990,0.058862,0.104960,-0.022427,-0.002613,0.185104,0.097973,0.240877,0.010421,0.004201
0.000000,0.000000,0.059582,-0.000000,-0.002222,0.000000,0.054889,0.146601,0.004475,0.043853,0.032858,-0.056010,0.093495,0.043552,-0.662236,0.068901,0.053394
0.000000,0.000000,0.002645,-0.000000,0.179675,-0.000000,0.007806,0.159979,0.115363,0.093700,0.020651,0.003315,0.010960,0.158608,-0.290443,0.002243,-0.011802
0.000000,0.000000,-0.006201,-0.000000,-0.014327,-0.000000,0.101150,0.018832,0.013168,0.051162,-0.001133,-0.004506,0.051260,0.020962,-0.005453,-0.015806,-0.007460
0.000000,0.000000,0.104573,-0.000000,0.000266,0.000000,0.003450,0.132278,0.045027,0.004239,0.010384,-0.017029,0.092066,-0.001987,-0.123727,-0.304483,0.003713
0.000000,0.000000,-0.029965,0.000000,0.020500,0.000000,0.048691,0.051047,0.072252,-0.130982,0.006859,-0.000125,-0.010398,-0.003291,-0.045227,-0.022477,0.009538
0.000000,-0.000000,0.019752,-0.000000,0.004039,0.000000,-0.005309,-0.007572,-0.021123,0.031828,0.053409,-0.089437,0.133799,0.077096,1.052132,-0.051284,0.015878
0.000000,-0.000000,0.065864,0.000000,-0.034940,0.000000,0.049988,0.000657,-0.061150,-0.030480,0.013530,0.001077,-0.004152,0.038775,0.017827,-0.213681,-0.155509
0.000000,-0.000000,0.044931,0.000000,-0.104172,-0.000000,0.079858,0.009627,0.000749,-0.076619,-0.001458,-0.038184,0.000132,0.037670,0.025666,0.003369,-0.111784
0.000000,-0.000000,-0.048210,0.000000,-0.064122,-0.000000,0.010835,-0.169879,-0.001982,-0.000442,0.004088,-0.229354,0.053239,0.027877,0.273797,0.048818,-0.000539
0.000000,-0.000000,0.000041,-0.000000,-0.018803,-0.000000,-0.004440,-0.019177,-0.013610,0.030911,-0.003823,-0.128783,-0.099446,0.039583,0.393508,-0.146844,0.086222
0.000000,0.000000,-0.004176,0.000000,-0.004833,0.000000,-0.539842,-0.134772,-0.031243,0.000718,-0.042639,-0.000021,-0.059929,0.026935,0.416817,-0.036077,0.004375
0.000000,-0.000000,-0.097118,0.000000,0.040949,-0.000000,-0.455022,-0.061850,-0.000604,-0.001068,-0.120929,0.000318,-0.000950,0.090920,-0.000105,0.024614,-0.001681
0.000000,-0.000000,-0.182381,-0.000000,0.005863,0.000000,-0.043130,0.000124,-0.000119,-0.016196,-0.004261,-0.000001,0.030878,0.010687,0.000072,-0.000282,-0.000054
0.000000,0.000000,-0.000560,-0.000000,-0.000000,-0.000000,-0.000812,0.000000,-0.000000,-0.000000,-0.000085,0.000000,0.004400,0.009903,-0.000000,0.000000,0.000146
0.000000,-0.000000,-0.000008,0.000000,0.000000,-0.000000,-0.000034,-0.000000,-0.000000,0.000000,-0.000000,-0.000000,0.000000,-0.000000,-0.000000,0.000000,0.000000
0.000000,0.000000,0.000000,0.000000,0.000000,0.000000,-0.000000,-0.000000,0.000000,0.000000,0.000000,0.000000,0.000000,0.000000,0.000000,0.000000,-0.000000
0.000000,0.000000,-0.000000,-0.000000,0.000000,0.000000,0.000000,0.000000,-0.000000,0.000000,-0.000000,-0.000000,0.000000,0.000000,0.000000,-0.000000,-0.000000
0.000000,-0.000000,-0.000164,0.000000,-0.000000,0.000000,-0.000000,-0.000000,0.000000,-0.000000,0.000658,0.000057,-0.000499,0.000000,-0.000000,-0.000000,-0.000000
0.000000,0.000000,-0.000883,0.000000,0.082374,0.000000,0.000039,0.000392,-0.001085,-0.000000,0.001356,-0.000665,-0.000701,-0.000000,-0.000000,-0.000391,0.000485
0.000000,0.000000,0.001537,-0.000000,0.014801,-0.000000,0.000739,-0.003520,-0.002325,-0.001280,0.005731,0.005041,-0.012295,0.000151,0.000283,0.001822,-0.155036
0.000000,-0.000000,0.042882,0.000000,0.000391,-0.000000,-0.111924,-0.082827,-0.337760,0.001324,-0.034114,0.091100,0.053481,0.079699,0.184896,0.048553,-0.420038
0.000000,-0.000000,0.021439,0.000000,0.101646,0.000000,-0.000277,-0.000349,-0.272383,0.079787,0.023019,-0.006167,0.000642,0.001416,0.439674,-0.034502,-0.034424
0.000000,0.000000,-0.001920,0.000000,0.010731,0.000000,-0.145200,0.025264,-0.495044,-0.024529,0.001817,0.005245,-0.064811,0.045511,0.061231,0.003141,-0.141282
0.000000,0.000000,-0.009292,-0.000000,0.175411,0.000000,0.000113,0.052187,-0.359458,-0.009034,0.003240,0.002018,0.004666,0.226559,-0.006871,0.002183,-0.215370
0.000000,0.000000,0.003722,0.000000,0.222931,-0.000000,-0.016436,0.153644,-0.557217,0.141638,-0.044393,0.080939,0.008327,-0.000383,-0.110561,0.004096,-0.145222
0.000000,0.000000,0.086121,0.000000,0.230803,-0.000000,-0.016134,0.025762,-0.254944,0.279497,-0.000335,0.076633,0.007909,0.117074,0.731610,-0.018770,-0.057769
0.000000,0.000000,-0.019780,0.000000,0.119384,0.000000,0.042168,0.008074,0.012487,0.151159,0.183467,-0.004973,0.072392,0.077838,0.589706,0.030284,0.078755
0.000000,0.000000,0.073250,0.000000,0.276896,0.000000,0.393917,0.114883,0.008789,0.076416,-0.010359,0.132908,0.323582,0.091099,0.010893,0.176622,0.123734
0.000000,-0.000000,0.042601,-0.000000,0.003734,-0.000000,0.006094,0.121126,0.307302,0.029554,-0.001155,-0.048214,0.081891,0.091211,-0.471806,-0.034244,0.107241
0.000000,-0.000000,-0.003136,0.000000,0.197376,0.000000,0.145592,0.290551,0.125189,0.145747,-0.001897,-0.122047,0.056428,-0.003003,-0.285487,-0.032418,0.376701
0.000000,-0.000000,-0.011045,-0.000000,-0.031263,-0.000000,0.289738,-0.002483,0.043478,-0.019249,0.042331,-0.058050,0.006553,-0.001370,-0.305234,-0.025825,0.014656
0.000000,-0.000000,0.007493,0.000000,0.087739,0.000000,0.021033,0.075020,-0.057242,0.069686,-0.027332,-0.050127,0.080049,-0.000782,-0.039127,-0.041107,-0.097766
0.000000,-0.000000,0.005449,-0.000000,0.039965,-0.000000,0.136530,-0.035556,0.086846,0.088800,0.079184,-0.054538,-0.009908,-0.013731,0.375349,-0.187794,-0.025384
0.000000,0.000000,0.106069,0.000000,-0.039411,0.000000,-0.005278,-0.164024,-0.001183,-0.026023,0.054855,-0.078248,-0.030645,0.021251,0.105378,0.000859,0.025986
0.000000,0.000000,0.080573,0.000000,0.002624,0.000000,-0.051671,0.002118,-0.003959,-0.002165,-0.070305,-0.100901,0.015842,-0.012532,0.175168,-0.192636,0.003185
0.000000,-0.000000,-0.003805,-0.000000,-0.146288,-0.000000,-0.001143,-0.242457,0.002213,-0.001889,0.023520,-0.057465,0.003281,-0.060160,0.012180,-0.001814,0.023888
0.000000,0.000000,0.011593,-0.000000,-0.001749,-0.000000,-0.000365,-0.214417,0.032741,0.130564,0.043480,0.000064,-0.069894,-0.001128,0.348111,-0.143176,0.003977
0.000000,-0.000000,-0.005907,0.000000,0.024817,-0.000000,-0.017927,0.011374,-0.000121,0.092092,0.013258,-0.259640,-0.151041,-0.003224,0.148439,-0.093676,0.106149
0.000000,0.000000,-0.012442,0.000000,0.075672,-0.000000,-0.010419,-0.285681,0.000166,-0.001026,-0.030799,-0.005042,-0.001939,-0.003449,0.010900,-0.002395,0.017645
0.000000,0.000000,-0.001370,0.000000,0.031536,0.000000,-0.031260,-0.033846,0.002730,-0.028639,-0.156566,0.011569,0.000311,0.011115,-0.000082,0.288368,0.000298
0.000000,0.000000,-0.001071,-0.000000,0.040657,-0.000000,-0.044818,0.000447,-0.000148,-0.016744,-0.202588,0.000258,0.071601,0.000040,-0.000013,-0.000227,0.000304
0.000000,0.000000,-0.007502,0.000000,0.025748,0.000000,0.000000,0.000134,-0.000000,0.000000,-0.000414,-0.000000,0.007891,-0.003058,-0.000134,-0.003270,0.000259
0.000000,0.000000,0.000000,-0.000000,-0.000000,0.000000,0.000000,0.000000,-0.000000,-0.000000,0.000000,0.000000,-0.000000,0.000000,0.000000,0.000000,-0.000000
0.000000,-0.000000,0.000000,0.000000,0.000000,-0.000000,-0.000000,0.000000,-0.000000,0.000000,-0.000000,0.000000,-0.000000,0.000000,0.000000,0.000000,-0.000000
0.000000,0.000000,-0.000000,-0.000000,-0.000000,-0.000000,0.000000,-0.000000,-0.000000,-0.000000,-0.000000,0.000000,-0.000000,0.000000,0.000000,-0.000000,-0.000000
0.000000,0.000000,-0.000094,-0.000000,-0.000000,0.000000,0.000000,0.000000,-0.000000,0.000000,0.000000,-0.000000,-0.000000,-0.000000,0.000000,-0.000000,-0.000000
0.000000,-0.000000,-0.000046,0.000000,0.037385,0.000000,0.000203,0.000311,-0.000902,-0.000310,0.000594,-0.000354,0.010514,0.000545,0.000003,0.000052,0.000639
0.000000,0.000000,0.001975,0.000000,-0.000414,0.000000,0.011689,-0.038284,-0.005810,-0.130546,0.000238,0.000029,-0.008133,-0.000143,0.000830,-0.063054,-0.223049
0.000000,-0.000000,0.070437,0.000000,0.017005,-0.000000,0.000540,-0.122644,-0.045780,-0.054944,-0.176291,-0.000542,0.012375,-0.001920,0.065571,0.026853,-0.387768
0.000000,0.000000,0.000812,0.000000,0.043247,-0.000000,-0.000421,0.001573,-0.078396,-0.006175,0.004454,0.024858,-0.005468,0.145677,-0.002837,-0.024594,0.001465
0.000000,-0.000000,-0.017422,0.000000,0.081210,-0.000000,-0.257884,-0.016349,-0.096194,0.000167,-0.077848,0.001952,-0.033600,-0.000277,0.515565,0.003875,-0.108581
0.000000,0.000000,-0.008082,-0.000000,-0.008003,0.000000,-0.054921,-0.003822,-0.045118,-0.067947,-0.133210,0.003248,-0.018632,0.017377,0.508920,-0.077349,-0.102739
0.000000,0.000000,-0.248530,-0.000000,-0.001787,0.000000,-0.056332,0.046369,-0.179065,0.009294,-0.114161,0.011781,-0.000591,0.023551,0.300168,0.002970,-0.009778
0.000000,-0.000000,0.001101,-0.000000,0.016270,-0.000000,-0.042024,0.108575,-0.349244,-0.000687,-0.003071,0.127732,0.066017,-0.001004,-0.007943,0.021014,0.003115
0.000000,0.000000,0.058257,0.000000,0.136957,0.000000,-0.001578,-0.002997,-0.628224,0.203049,-0.000630,0.003087,0.160543,0.001823,0.483178,0.113946,0.034373
0.000000,0.000000,-0.001822,0.000000,0.310735,0.000000,0.118891,0.166133,-0.311877,0.289215,0.206234,0.001564,0.077726,0.029270,0.002860,0.092636,0.230520
0.000000,-0.000000,-0.043738,-0.000000,0.052658,-0.000000,0.148038,-0.001738,-0.101720,0.093486,0.115616,-0.002404,0.047630,0.117615,0.007605,0.001338,0.130183
0.000000,0.000000,0.126059,-0.000000,0.085822,0.000000,0.004725,0.118857,-0.006350,0.002597,0.005245,-0.140654,0.038241,0.120895,-0.131372,-0.127369,0.284127
0.000000,0.000000,-0.004228,-0.000000,0.316361,0.000000,-0.006341,0.004809,0.100557,-0.031641,-0.020097,-0.035563,-0.004785,0.028830,-0.139288,-0.135404,0.001208
0.000000,0.000000,-0.053360,-0.000000,0.063345,-0.000000,0.113966,0.145387,-0.096830,0.000180,0.003262,-0.054400,0.029662,0.134560,0.032503,-0.034685,0.226971
0.000000,-0.000000,0.082994,0.000000,0.126101,0.000000,0.078807,-0.183592,-0.034990,-0.136010,0.259539,-0.000017,0.134891,-0.003586,1.267629,-0.014928,0.143641
0.000000,-0.000000,0.063600,0.000000,-0.003227,0.000000,0.002133,-0.040505,0.171199,0.037156,-0.001424,-0.017328,0.053899,0.000107,0.196948,-0.282074,0.163831
0.000000,0.000000,0.028651,0.000000,0.000556,0.000000,0.000395,-0.349052,0.107453,-0.112297,-0.003793,0.002355,-0.002761,-0.002784,0.003362,0.008289,0.013230
0.000000,0.000000,0.000235,-0.000000,0.087986,0.000000,0.003981,-0.379652,0.053487,-0.061486,0.093435,-0.025856,0.005951,-0.003942,0.507619,-0.098473,0.003511
0.000000,0.000000,-0.000995,0.000000,-0.000462,-0.000000,-0.436539,-0.146290,-0.003759,0.001465,-0.027612,-0.016577,-0.014157,0.031578,-0.015450,-0.018839,0.110050
0.000000,0.000000,0.002111,0.000000,0.032557,-0.000000,-0.187957,0.011595,0.084672,0.022196,-0.118461,-0.019119,-0.004913,-0.003589,-0.002883,0.048771,0.004197
0.000000,0.000000,0.000891,0.000000,0.068074,0.000000,-0.017439,-0.279832,0.043952,-0.001207,-0.002218,-0.001442,-0.012769,-0.003885,0.002197,0.003848,-0.003828
0.000000,-0.000000,-0.000602,-0.000000,-0.000249,0.000000,-0.393846,-0.027366,0.234525,0.000613,0.007912,0.012589,0.008617,0.179663,-0.043159,0.005406,0.050449
0.000000,-0.000000,-0.020465,-0.000000,0.015782,0.000000,-0.170796,-0.000058,-0.000416,-0.000213,-0.011094,0.003000,0.243433,0.051352,-0.000136,0.001601,0.358799
0.000000,0.000000,-0.022838,-0.000000,0.000416,0.000000,-0.043474,-0.000229,0.000047,-0.000294,-0.002116,0.000405,0.048691,0.000097,-0.000059,0.000287,0.005652
0.000000,-0.000000,-0.000482,-0.000000,-0.000000,0.000000,-0.000000,0.000000,-0.000000,-0.000000,-0.000000,-0.000000,0.000000,0.000000,0.000000,-0.000000,-0.000000
0.000000,-0.000000,0.000000,-0.000000,0.000000,0.000000,-0.000000,-0.000000,-0.000000,0.000000,0.000000,-0.000000,0.000000,-0.000000,0.000000,0.000000,0.000000
0.000000,-0.000000,0.000000,-0.000000,-0.000000,-0.000000,0.000000,-0.000000,0.000000,0.000000,-0.000000,-0.000000,-0.000000,-0.000000,0.000000,0.000000,-0.000000
0.000000,-0.000000,0.000000,-0.000000,-0.000000,-0.000000,-0.000000,-0.000000,0.000000,-0.000000,0.000165,0.000000,0.000000,0.000000,-0.000000,-0.000000,0.000000
0.000000,0.000000,0.000039,0.000000,0.013375,0.000000,-0.039275,0.000174,0.009548,-0.000505,0.002257,-0.001192,0.104610,-0.000650,0.000101,0.000516,-0.000000
0.000000,0.000000,-0.002791,-0.000000,0.083122,-0.000000,0.001436,-0.054014,-0.003724,-0.208401,-0.196133,-0.004682,0.083161,0.150626,0.002211,-0.081797,-0.053954
0.000000,-0.000000,-0.000047,-0.000000,0.030525,-0.000000,-0.002026,-0.062773,-0.003116,-0.634314,-0.075006,0.061160,-0.001292,-0.003550,-0.007310,-0.002254,-0.139396
0.000000,-0.000000,0.132115,0.000000,0.145386,-0.000000,-0.002719,0.002856,-0.000960,-0.644997,-0.017310,0.009294,0.000786,0.176774,-0.012295,-0.006700,0.009777
0.000000,0.000000,-0.000389,0.000000,0.062404,-0.000000,-0.158147,0.014600,-0.043027,-0.223854,0.001305,0.001136,0.002067,0.000607,0.247927,-0.014176,-0.153803
0.000000,0.000000,0.113156,0.000000,0.000280,0.000000,-0.197017,0.053470,0.004164,-0.015847,-0.007202,-0.002435,0.153823,-0.012320,0.459042,-0.069088,-0.142010
0.000000,-0.000000,-0.069725,0.000000,0.017034,0.000000,0.050328,-0.005129,-0.077827,0.002150,0.065440,0.007272,0.055160,0.113744,0.608458,0.009758,-0.069258
0.000000,0.000000,-0.013167,-0.000000,0.005321,-0.000000,-0.000465,-0.002421,-0.074443,0.070611,-0.057787,0.000291,0.080027,-0.031134,0.123071,0.150998,-0.072263
0.000000,-0.000000,-0.007906,-0.000000,0.073611,-0.000000,0.009979,0.122594,-0.101671,-0.023689,-0.030440,0.000500,-0.004330,0.052586,0.030563,-0.046001,0.021328
0.000000,-0.000000,0.005189,-0.000000,-0.068855,-0.000000,-0.000245,0.113154,-0.470612,-0.004033,-0.070459,-0.077571,0.082811,0.076899,-0.074219,0.098362,0.003257
0.000000,0.000000,-0.001045,-0.000000,0.133971,0.000000,0.019162,0.190986,-0.155290,-0.026128,0.079135,-0.009686,0.166677,0.006990,0.003319,-0.007145,-0.034440
0.000000,-0.000000,-0.001089,0.000000,0.039316,0.000000,-0.004195,0.040904,-0.070414,-0.059474,0.056842,-0.028347,-0.065701,0.141130,0.081890,0.008924,0.198787
0.000000,0.000000,-0.006958,0.000000,0.112076,0.000000,-0.003384,0.003081,-0.156829,0.123865,0.109607,-0.004969,0.002125,-0.092164,-0.884638,-0.144894,0.051103
0.000000,0.000000,0.027922,-0.000000,0.083975,-0.000000,-0.050053,-0.021132,-0.021449,-0.101445,0.006677,-0.018696,0.018685,-0.056103,0.236205,-0.127048,0.024441
0.000000,0.000000,0.014107,-0.000000,-0.003202,0.000000,0.003850,-0.275487,0.048903,-0.002357,0.147046,0.010927,0.015017,-0.007044,0.683336,-0.055338,-0.036542
0.000000,0.000000,0.000174,0.000000,0.149450,-0.000000,0.002671,-0.234738,-0.025376,0.003767,-0.025780,-0.006382,-0.091146,-0.081841,0.016190,0.018909,0.106716
0.000000,0.000000,0.005515,-0.000000,-0.003055,-0.000000,0.012797,-0.089890,0.045634,-0.003066,-0.020838,-0.151750,0.005078,-0.030816,0.009208,0.007249,0.034615
0.000000,-0.000000,0.000025,-0.000000,0.011759,0.000000,0.002338,-0.027343,-0.002337,-0.098492,-0.003770,-0.099691,-0.090210,0.032783,0.495565,-0.014923,0.097148
0.000000,-0.000000,0.008007,0.000000,0.059383,-0.000000,-0.274449,-0.034589,0.000155,-0.000659,-0.048339,-0.024991,0.001161,-0.001420,-0.000216,-0.019246,0.020650
0.000000,-0.000000,0.002281,0.000000,-0.002824,-0.000000,-0.026095,-0.062422,-0.000049,-0.010696,-0.009742,0.001146,0.001653,0.009578,-0.039296,0.019869,-0.003823
0.000000,-0.000000,0.003921,-0.000000,-0.000903,-0.000000,-0.000256,-0.121817,0.000475,-0.003766,-0.003682,0.001439,-0.013466,-0.000712,0.001252,0.020258,-0.004607
0.000000,-0.000000,-0.002557,-0.000000,-0.008938,-0.000000,0.001883,0.001645,-0.000789,-0.088391,0.052978,0.000288,-0.037188,0.161128,-0.036693,-0.014400,0.148030
0.000000,-0.000000,-0.001443,-0.000000,-0.001274,-0.000000,0.001927,-0.001406,-0.032364,-0.000054,-0.000295,-0.000454,-0.000412,0.000343,-0.210327,-0.009260,0.451199
0.000000,-0.000000,-0.000165,0.000000,-0.000273,0.000000,0.000822,-0.000008,-0.000000,-0.000124,-0.000273,0.000284,-0.000370,0.000354,-0.000019,-0.000732,0.000465
0.000000,-0.000000,0.000000,0.000000,0.000000,-0.000000,-0.000000,0.000000,-0.000000,0.000000,0.000000,0.000000,0.000000,0.000000,-0.000000,-0.000000,-0.000000
0.000000,-0.000000,-0.000000,0.000000,-0.000000,0.000000,0.000000,0.000000,0.000000,0.000000,0.000000,-0.000000,-0.000000,0.000000,-0.000000,0.000000,0.000000
0.000000,0.000000,-0.000000,0.000000,-0.000000,-0.000000,-0.000000,0.000000,0.000000,-0.000000,0.000000,0.000000,-0.000000,0.000000,-0.000000,0.000000,0.000000
0.000000,0.000000,0.000000,-0.000000,0.000000,-0.000000,0.000000,-0.000000,0.000000,-0.000000,-0.000000,-0.000000,0.000000,0.000000,0.000000,0.000000,-0.000000
0.000000,0.000000,0.000651,0.000000,0.027679,0.000000,-0.199045,0.000311,0.150405,-0.000214,0.000725,-0.014291,0.112483,-0.000636,0.000301,0.000187,0.002294
0.000000,0.000000,-0.009475,-0.000000,0.066345,-0.000000,-0.095652,-0.000449,0.254584,-0.104704,-0.171119,-0.072659,-0.008029,-0.001098,0.041255,-0.163402,0.003164
0.000000,0.000000,-0.012963,-0.000000,0.002940,-0.000000,-0.010121,0.002903,-0.004556,-0.554553,-0.054418,-0.001045,0.044659,0.078310,0.339546,-0.000648,0.003871
0.000000,-0.000000,-0.006904,-0.000000,0.110333,-0.000000,0.001007,0.000481,0.348269,-0.449589,0.094702,0.119915,0.219901,0.000222,0.451882,-0.118838,-0.196325
0.000000,-0.000000,-0.021919,-0.000000,0.003642,-0.000000,-0.162276,-0.103976,0.015441,-0.670742,-0.000697,0.003990,0.053683,0.017873,0.313941,-0.000088,0.083082
0.000000,0.000000,-0.002214,-0.000000,0.001623,-0.000000,0.000534,-0.088140,0.052440,-1.358917,0.014606,0.059279,0.013249,-0.004052,0.174440,0.004121,0.000671
0.000000,-0.000000,0.023624,0.000000,0.075455,-0.000000,-0.087654,0.000328,0.058486,-1.193184,-0.074227,0.060962,0.004881,0.078744,0.014067,0.005622,-0.107131
0.000000,0.000000,0.114569,0.000000,-0.090914,-0.000000,-0.127817,-0.028647,-0.000687,-0.694826,-0.004004,-0.044693,0.132808,0.002106,0.166637,0.028197,-0.014760
0.000000,0.000000,-0.143527,-0.000000,-0.037872,-0.000000,0.034981,0.016407,0.057812,-0.217550,0.018827,-0.031337,0.026658,-0.003179,0.168285,-0.006177,-0.071362
0.000000,-0.000000,0.003652,-0.000000,0.063429,0.000000,0.111385,0.076525,0.006862,-0.346329,-0.050645,0.099249,0.141017,0.084905,-0.001650,0.005287,0.088235
0.000000,-0.000000,0.008142,0.000000,0.118956,0.000000,0.100043,0.003537,-0.009650,-0.002435,0.000059,0.003042,0.105483,0.086759,0.035781,-0.310174,0.280795
0.000000,-0.000000,0.159714,-0.000000,0.015626,0.000000,-0.006534,-0.050001,-0.055196,-0.001476,0.000831,-0.006466,0.069082,0.005231,0.495728,-0.347808,0.132277
0.000000,-0.000000,-0.006135,-0.000000,0.003970,0.000000,0.001494,-0.172111,-0.128054,-0.061563,0.043797,-0.040281,0.001353,-0.029551,-0.052839,-0.013533,0.017221
0.000000,-0.000000,0.107170,0.000000,0.102167,0.000000,-0.009563,-0.314007,0.008204,-0.080412,0.048808,-0.048215,0.063775,-0.051143,0.400607,-0.061967,0.076595
0.000000,-0.000000,0.080482,0.000000,-0.030080,-0.000000,-0.039807,-0.002435,0.025176,-0.008400,-0.006644,-0.010123,0.008699,0.114011,0.005967,-0.024661,0.003609
0.000000,-0.000000,0.010632,-0.000000,-0.007326,0.000000,-0.005772,-0.001699,-0.063587,-0.008801,-0.073078,-0.005359,-0.031111,-0.000686,-0.015499,0.002372,0.003313
0.000000,0.000000,0.048647,-0.000000,0.004952,-0.000000,-0.198933,-0.210876,-0.004864,-0.018575,-0.066941,-0.027289,-0.032585,0.001032,0.098100,-0.070844,-0.000131
0.000000,-0.000000,0.101903,-0.000000,0.002930,-0.000000,-0.341956,0.003433,0.104697,-0.000147,-0.006970,-0.045589,-0.006685,-0.083364,-0.079977,0.009515,-0.002273
0.000000,0.000000,0.006237,0.000000,0.001872,-0.000000,-0.159361,-0.104388,0.032281,0.133718,-0.145142,0.001205,-0.000489,-0.085050,-0.031409,-0.005232,0.002078
0.000000,-0.000000,0.014614,0.000000,-0.043059,-0.000000,-0.217315,-0.074535,-0.000276,0.012932,-0.022164,-0.006454,-0.015438,0.001019,0.001036,0.002788,-0.003453
0.000000,-0.000000,-0.001957,-0.000000,0.013742,-0.000000,-0.207521,-0.007481,-0.023675,0.003844,-0.014903,0.000002,-0.034158,-0.016864,0.000880,0.007794,-0.011220
0.000000,-0.000000,-0.006377,0.000000,0.046032,0.000000,0.001331,0.014703,-0.004334,-0.073299,-0.188178,-0.001209,-0.010354,0.004477,-0.114893,-0.000236,0.373077
0.000000,0.000000,-0.009754,0.000000,-0.000177,0.000000,0.000109,-0.000390,-0.010281,0.000142,-0.121059,-0.000972,-0.000117,0.061073,-0.158674,-0.000222,0.000410
0.000000,0.000000,-0.000000,-0.000000,-0.000058,0.000000,0.000337,-0.000000,-0.000001,-0.000000,0.000075,0.000053,-0.000242,0.000212,-0.000000,-0.000104,-0.000056
0.000000,-0.000000,-0.000000,-0.000000,-0.000000,0.000000,0.000000,0.000000,0.000000,-0.000000,-0.000000,0.000000,0.000000,-0.000000,0.000000,0.000000,0.000000
0.000000,0.000000,-0.000000,0.000000,-0.000000,0.000000,0.000000,-0.000000,-0.000000,0.000000,0.000000,0.000000,-0.000000,0.000000,-0.000000,-0.000000,0.000000
0.000000,-0.000000,-0.000000,0.000000,0.000000,-0.000000,-0.000000,0.000000,0.000000,-0.000000,-0.000000,-0.000000,-0.000000,-0.000000,0.000000,0.000000,-0.000000
0.000000,0.000000,0.000322,0.000000,0.000000,-0.000000,-0.000001,-0.000002,0.000005,0.000006,-0.000000,-0.000001,-0.002501,-0.000000,-0.000000,0.000002,-0.000001
0.000000,0.000000,-0.000000,-0.000000,0.003381,-0.000000,-0.000724,-0.000095,0.108999,-0.000052,-0.071597,-0.013640,0.000006,-0.000553,0.008202,0.000324,0.003997
0.000000,0.000000,-0.016788,0.000000,0.000217,-0.000000,-0.054767,-0.103352,0.062712,-0.001945,0.002304,-0.005086,-0.002437,0.043741,0.075757,-0.013627,0.055730
0.000000,-0.000000,-0.005469,0.000000,0.001533,-0.000000,-0.033143,-0.412770,0.138622,-0.001122,0.007257,0.000563,0.069255,-0.004503,0.161074,0.004682,-0.001412
0.000000,0.000000,-0.001268,-0.000000,-0.003885,0.000000,-0.000230,-0.098123,0.033567,-0.012986,0.000384,0.081626,-0.055935,-0.004333,0.006199,0.135333,-0.000962
0.000000,-0.000000,-0.000688,0.000000,-0.154589,0.000000,-0.179562,-0.179729,0.085981,-0.051442,-0.160708,0.015692,0.033032,-0.003591,-0.074610,0.002007,0.027438
0.000000,-0.000000,0.037614,-0.000000,0.017084,-0.000000,0.000705,-0.107744,-0.003699,-0.019909,0.001283,0.035100,0.069048,-0.021036,0.118094,0.009303,0.003329
0.000000,-0.000000,0.004202,-0.000000,0.035100,0.000000,-0.038746,0.007261,-0.001114,0.001696,-0.129565,0.047251,0.044230,0.010640,-0.077362,-0.016761,-0.005376
0.000000,-0.000000,0.014643,0.000000,-0.094191,-0.000000,-0.220348,-0.012275,0.081148,-0.678385,-0.084952,0.002789,-0.001070,0.019086,-0.015674,0.035708,0.002197
0.000000,-0.000000,0.046165,-0.000000,0.067247,0.000000,-0.143593,-0.284373,0.075508,-0.602429,-0.163637,-0.042701,-0.024387,0.021962,0.243681,-0.583448,0.209322
0.000000,0.000000,0.105247,0.000000,-0.168585,-0.000000,0.086225,-0.134623,-0.001990,-0.341717,-0.067371,-0.003143,0.047662,-0.015136,0.083277,-0.032348,0.004594
0.000000,-0.000000,-0.003598,-0.000000,0.001144,-0.000000,-0.001743,-0.011163,-0.075966,-0.186176,-0.090363,0.064165,0.119961,0.050598,-0.044770,-0.002249,0.022115
0.000000,0.000000,0.077304,0.000000,0.038358,-0.000000,0.000824,-0.182283,-0.112523,-0.021306,-0.016398,-0.105220,-0.003219,0.000055,-0.018319,-0.124551,0.150838
0.000000,0.000000,0.000300,-0.000000,0.062777,0.000000,-0.099238,-0.007656,-0.018596,-0.012402,-0.077215,0.008371,0.026982,-0.092748,-0.002281,-0.051722,0.155092
0.000000,-0.000000,0.012762,-0.000000,0.041973,-0.000000,-0.004110,-0.001017,-0.005650,0.119036,-0.014013,-0.013591,0.106370,0.002286,0.008351,-0.011489,0.028535
0.000000,-0.000000,-0.026142,-0.000000,0.037917,-0.000000,0.002424,-0.022487,0.033967,-0.015263,-0.066307,-0.003173,0.074134,0.012602,0.234351,0.011013,0.066015
0.000000,0.000000,0.079674,0.000000,0.027072,-0.000000,-0.011239,-0.065731,-0.031313,-0.000237,-0.003862,0.018151,0.157970,-0.016332,0.058096,0.019195,-0.041047
0.000000,-0.000000,0.005891,-0.000000,-0.001494,-0.000000,-0.306747,0.006716,-0.025270,0.003920,0.074922,0.001041,0.012834,-0.003363,-0.031270,-0.032213,-0.025579
0.000000,-0.000000,-0.001599,0.000000,0.002958,0.000000,-0.267088,0.004996,-0.004710,0.079372,-0.011331,0.003505,-0.003123,-0.007205,-0.012675,-0.016293,0.001228
0.000000,-0.000000,-0.039909,0.000000,0.074918,-0.000000,-0.080968,-0.017634,0.010984,0.001339,-0.007376,0.012882,-0.001747,-0.015130,-0.007124,-0.000527,0.012986
0.000000,-0.000000,0.005071,0.000000,0.003688,-0.000000,-0.228275,0.005601,-0.013479,0.002276,-0.013168,-0.000203,0.117002,-0.000366,-0.009712,0.137889,-0.000287
0.000000,-0.000000,0.001827,0.000000,0.020289,-0.000000,-0.025409,0.087856,-0.003020,0.000225,0.003485,-0.002726,0.033018,0.000537,-0.030015,0.155821,0.107558
0.000000,-0.000000,0.010437,-0.000000,0.000453,0.000000,-0.000191,0.000206,-0.005990,0.000398,-0.151950,-0.011114,-0.011987,0.027971,-0.457512,0.033853,-0.001000
0.000000,0.000000,0.000138,0.000000,-0.000441,0.000000,0.000229,-0.000183,0.000537,0.000731,-0.143376,-0.006766,0.004143,0.000238,-0.307220,0.000670,-0.000043
0.000000,-0.000000,-0.000000,0.000000,-0.000000,0.000000,-0.000000,0.000000,-0.000000,0.000000,0.000000,-0.000000,0.000000,0.000183,-0.000000,-0.000000,-0.000000
0.000000,0.000000,-0.000000,-0.000000,-0.000000,-0.000000,0.000000,0.000000,0.000000,0.000000,-0.000000,-0.000000,-0.000000,-0.000000,0.000000,-0.000000,0.000000
0.000000,0.000000,0.000000,-0.000000,0.000000,-0.000000,0.000000,-0.000000,0.000000,-0.000000,-0.000000,-0.000000,-0.000000,0.000000,-0.000000,-0.000000,-0.000000
0.000000,0.000000,-0.000000,0.000000,0.000000,-0.000000,0.000000,-0.000000,-0.000000,0.000000,-0.000000,0.000000,-0.000000,0.000000,0.000000,0.000000,0.000000
0.000000,-0.000000,0.000099,0.000000,0.000000,0.000000,0.000037,-0.000007,0.000002,0.000059,-0.000000,-0.000000,0.000002,-0.000000,0.000000,0.000000,-0.000031
0.000000,-0.000000,0.000198,-0.000000,0.000000,0.000000,-0.000157,-0.039278,0.001000,0.017336,-0.051614,-0.003229,0.000752,0.017964,0.013087,0.002563,0.012904
0.000000,-0.000000,0.000004,-0.000000,-0.000037,-0.000000,-0.006330,-0.113096,0.007270,0.004173,-0.000942,-0.055670,0.078241,-0.000160,0.009245,0.162975,0.179223
0.000000,0.000000,-0.003215,0.000000,-0.009650,0.000000,-0.030120,-0.023794,0.007847,0.002444,0.109056,0.000490,0.014982,0.001591,0.015553,0.200867,0.172270
0.000000,-0.000000,0.120075,-0.000000,-0.013755,0.000000,0.000835,-0.008380,0.150721,0.001579,0.036370,-0.000829,-0.006261,0.002500,-0.599385,0.038009,0.049735
0.000000,-0.000000,-0.045557,0.000000,-0.002688,0.000000,0.003462,-0.012195,0.013499,0.084173,-0.042829,-0.006442,0.093801,0.053353,-0.391725,-0.002238,0.212616
0.000000,-0.000000,-0.005052,0.000000,-0.085482,0.000000,-0.158346,-0.105175,0.165647,0.038717,-0.009091,0.068314,-0.012973,0.002865,0.056036,0.007686,0.015809
0.000000,-0.000000,0.024151,0.000000,-0.126523,0.000000,-0.010917,-0.144565,0.097032,0.053873,-0.139845,0.001373,0.026605,-0.002913,-0.175623,0.148894,-0.002248
0.000000,-0.000000,-0.023064,0.000000,0.005910,0.000000,0.011935,0.009066,-0.002261,0.140187,-0.036779,0.053006,0.032419,-0.003716,0.245369,0.186665,0.098788
0.000000,0.000000,0.005008,-0.000000,0.019563,-0.000000,0.021625,-0.032320,0.062130,0.055690,-0.174656,0.007713,0.087814,-0.035658,0.203769,-0.009804,0.160752
0.000000,-0.000000,-0.181077,-0.000000,-0.047660,-0.000000,0.001370,0.004015,-0.102288,-0.010345,-0.193082,0.002146,-0.000677,-0.034388,0.038583,0.037201,0.215145
0.000000,0.000000,0.025233,-0.000000,-0.012994,-0.000000,-0.017331,-0.006094,-0.003314,-0.029854,0.029229,0.003209,-0.001330,-0.064621,-0.015790,0.014148,0.085282
0.000000,-0.000000,0.002158,-0.000000,0.006875,0.000000,0.031140,0.017119,0.001485,0.007885,-0.001395,-0.072669,-0.078507,-0.011609,-0.052658,0.009639,-0.011037
0.000000,0.000000,0.003141,0.000000,0.028977,0.000000,-0.009527,0.055856,-0.046032,0.002554,-0.055538,-0.001902,0.001200,-0.024523,-0.038904,0.059961,0.101440
0.000000,-0.000000,0.001024,0.000000,0.047849,0.000000,0.005032,0.055337,0.003352,0.004103,-0.079415,-0.078601,0.007251,0.003884,-0.260921,0.007335,0.023354
0.000000,-0.000000,0.002273,0.000000,0.015774,-0.000000,0.000474,-0.006964,-0.016072,0.013879,-0.064140,-0.002254,-0.105648,-0.106951,-0.371311,0.011288,-0.026360
0.000000,0.000000,0.031524,-0.000000,0.001942,0.000000,-0.096550,0.016877,-0.095228,0.061403,-0.147708,-0.050554,0.057196,-0.047867,-0.621146,0.066473,0.001837
0.000000,0.000000,0.117538,-0.000000,-0.206473,-0.000000,-0.040610,0.001277,-0.001033,0.006821,-0.003693,0.042936,0.000273,-0.010057,-0.003347,0.116417,-0.205347
0.000000,-0.000000,0.004570,-0.000000,-0.000077,-0.000000,-0.254122,0.060943,0.048672,-0.005283,-0.187418,0.010429,0.170300,-0.099811,-0.254453,0.069437,0.000465
0.000000,-0.000000,0.003320,-0.000000,0.000806,0.000000,-0.000894,0.004175,-0.004137,0.001684,-0.008106,-0.000734,0.236813,-0.012291,-0.016786,0.056045,0.009572
0.000000,-0.000000,0.100517,-0.000000,0.006846,0.000000,0.000151,0.076404,-0.001314,0.000431,-0.007075,0.066128,0.004152,-0.011409,-0.297674,-0.000862,0.033361
0.000000,0.000000,0.006207,-0.000000,0.004959,0.000000,-0.038530,0.000553,-0.001913,0.002500,0.025364,0.000594,-0.002036,0.001167,-1.069211,0.101464,0.098059
0.000000,-0.000000,0.001658,-0.000000,-0.016387,0.000000,-0.003990,0.000620,-0.001578,0.001203,0.000757,-0.003259,-0.000993,0.062847,-0.725346,0.001853,-0.002063
0.000000,0.000000,0.001700,-0.000000,-0.000292,-0.000000,0.000133,-0.000334,-0.000483,0.000768,-0.004837,-0.000295,0.002148,0.008139,-0.023673,0.014449,-0.000000
0.000000,0.000000,-0.000000,0.000000,-0.000000,-0.000000,0.000000,-0.000000,-0.000000,-0.000000,0.000000,0.000000,0.000000,0.000114,0.000000,-0.000000,0.000000
0.000000,-0.000000,0.000000,0.000000,0.000000,-0.000000,-0.000000,-0.000000,0.000000,0.000000,-0.000000,-0.000000,-0.000000,0.000000,-0.000000,0.000000,-0.000000
0.000000,-0.000000,-0.000000,-0.000000,0.000000,0.000000,-0.000000,0.000000,0.000000,-0.000000,-0.000000,-0.000000,-0.000000,-0.000000,-0.000000,0.000000,0.000000
0.000000,0.000000,-0.000000,0.000000,0.000000,-0.000000,0.000000,-0.000000,0.000000,-0.000000,0.000000,0.000000,0.000000,0.000000,-0.000000,-0.000000,-0.000000
0.000000,0.000000,0.000000,-0.000000,0.000000,-0.000000,0.000198,-0.000059,-0.000000,0.000262,0.000031,-0.000000,-0.000004,-0.000005,-0.000000,-0.000000,-0.000143
0.000000,0.000000,0.001174,-0.000000,0.000009,-0.000000,0.000350,-0.006963,-0.001319,0.066622,-0.058205,-0.007177,0.194771,0.002006,0.000365,0.012342,0.000108
0.000000,-0.000000,0.011465,-0.000000,-0.000007,-0.000000,-0.042101,-0.000233,-0.001408,0.125828,-0.000893,-0.005044,0.208616,0.000268,0.007163,0.106527,0.106196
0.000000,-0.000000,0.046254,0.000000,-0.001749,0.000000,-0.005950,0.016512,0.003302,0.148824,0.003523,-0.010090,-0.009943,0.042588,-0.019365,0.001331,0.013559
0.000000,0.000000,0.005090,0.000000,-0.019098,-0.000000,0.060914,0.058062,-0.044808,0.251427,0.018757,0.000026,0.002058,0.001283,-0.009952,0.217773,0.004088
0.000000,0.000000,0.009283,0.000000,-0.000779,-0.000000,0.048150,0.115831,-0.053883,0.199658,-0.005166,-0.006334,0.070655,0.003356,-0.012819,0.247009,-0.007916
0.000000,-0.000000,0.003377,0.000000,0.016414,0.000000,0.001031,0.060520,0.121407,0.012948,-0.051142,-0.001403,0.000708,-0.027895,0.038484,-0.005687,-0.009874
0.000000,-0.000000,0.043491,0.000000,-0.003574,0.000000,0.006653,0.104349,0.011470,0.126675,-0.015751,-0.046343,0.001989,-0.041567,0.078667,0.071547,0.176110
0.000000,0.000000,0.015183,0.000000,-0.164140,-0.000000,-0.054869,-0.007419,-0.000720,0.114081,-0.037235,-0.005247,0.065628,0.020892,0.167160,0.001327,-0.003193
0.000000,-0.000000,0.018559,-0.000000,-0.002869,-0.000000,0.001151,0.002364,-0.032453,0.017126,-0.003348,0.069004,-0.004133,-0.068007,0.184680,0.169294,0.005558
0.000000,-0.000000,0.066722,-0.000000,-0.009245,0.000000,0.001711,-0.004701,0.004531,0.126302,0.002525,0.037105,-0.012373,0.110098,0.594069,0.085771,0.082336
0.000000,0.000000,0.069877,-0.000000,-0.004549,0.000000,-0.025028,-0.007187,0.021071,-0.009662,0.013339,0.001238,-0.001174,0.004919,-0.194510,0.049972,0.219733
0.000000,0.000000,0.165634,0.000000,0.015895,-0.000000,-0.155913,0.010074,0.016311,-0.005496,0.001821,-0.002570,-0.003986,-0.010927,-0.217292,0.061140,0.157267
0.000000,0.000000,-0.003620,-0.000000,0.014788,-0.000000,-0.015712,0.002242,-0.007849,0.002418,0.014043,-0.019071,0.004174,0.005962,0.311695,0.105978,0.002962
0.000000,0.000000,0.013920,0.000000,-0.026659,-0.000000,-0.093222,-0.042842,-0.058320,-0.008973,0.072893,0.001233,0.004318,0.008828,-0.173494,0.082265,-0.015645
0.000000,0.000000,0.061724,0.000000,0.145893,-0.000000,-0.088996,0.052708,0.019926,-0.057056,-0.074527,-0.050277,0.044384,0.012635,0.002655,0.063310,0.159308
0.000000,0.000000,0.056980,0.000000,-0.034516,0.000000,-0.092334,-0.000320,0.052173,0.078154,-0.042968,-0.003421,0.007086,-0.004500,-0.097418,0.002523,-0.005757
0.000000,-0.000000,0.004207,0.000000,0.000723,0.000000,-0.772740,-0.004549,0.019688,-0.063294,0.035723,0.016265,0.002525,-0.049167,-0.006970,0.108893,-0.004596
0.000000,0.000000,0.230196,0.000000,0.002000,-0.000000,-0.332003,0.045555,0.008319,-0.002195,-0.016002,-0.030521,-0.068868,-0.000951,-1.321060,0.118280,-0.000896
0.000000,0.000000,0.078605,-0.000000,0.000055,-0.000000,-0.000368,-0.000630,0.001564,-0.076140,-0.010884,-0.000030,-0.019193,0.044958,-0.226291,0.077982,0.006490
0.000000,0.000000,-0.002077,0.000000,0.032404,-0.000000,0.001461,-0.001279,0.043413,-0.025018,-0.008489,0.000372,0.013942,-0.003141,-0.025226,0.289291,0.100269
0.000000,0.000000,0.000717,-0.000000,0.004527,-0.000000,-0.000811,-0.045139,-0.117441,0.001276,-0.000898,0.000158,-0.001418,0.001857,-0.082965,0.150719,0.064719
0.000000,0.000000,0.019673,-0.000000,-0.007479,-0.000000,0.000143,-0.000005,-0.132904,-0.000029,-0.001125,0.001114,-0.006212,0.000523,-0.353024,0.071145,0.002621
0.000000,0.000000,0.013099,-0.000000,-0.000059,-0.000000,0.000000,0.000149,-0.001575,0.000583,-0.006155,-0.000061,-0.000052,0.000524,0.000000,0.034749,0.000433
0.000000,0.000000,-0.000000,-0.000000,0.000000,-0.000000,0.000000,-0.000000,-0.000000,0.000000,0.000000,0.000000,0.000000,-0.000000,0.000000,-0.000000,0.000000
0.000000,-0.000000,0.000000,-0.000000,0.000000,-0.000000,-0.000000,0.000000,0.000000,0.000000,-0.000000,0.000000,0.000000,-0.000000,-0.000000,-0.000000,0.000000
0.000000,-0.000000,0.000000,-0.000000,0.000000,-0.000000,-0.000000,-0.000000,-0.000000,-0.000000,-0.000000,-0.000000,-0.000000,0.000000,-0.000000,0.000000,-0.000000
0.000000,0.000000,-0.000000,0.000000,-0.000000,0.000000,-0.000000,-0.000000,0.000000,-0.000000,-0.000000,0.000000,0.000000,-0.000000,-0.000000,0.000000,-0.000000
0.000000,-0.000000,-0.000000,0.000000,0.000000,-0.000000,-0.000000,0.000000,-0.000000,0.000002,-0.000000,0.000000,-0.000000,0.000000,0.000000,0.000000,-0.000000
0.000000,0.000000,0.004031,0.000000,0.000007,0.000000,0.000094,-0.000108,-0.000042,0.018367,-0.031777,-0.000000,0.097841,-0.000220,-0.000072,0.041315,-0.000152
